tree
version=v3
num_class=1
num_tree_per_iteration=1
label_index=0
max_feature_idx=149
objective=lambdarank
feature_names=Column_0 Column_1 Column_2 Column_3 Column_4 Column_5 Column_6 Column_7 Column_8 Column_9 Column_10 Column_11 Column_12 Column_13 Column_14 Column_15 Column_16 Column_17 Column_18 Column_19 Column_20 Column_21 Column_22 Column_23 Column_24 Column_25 Column_26 Column_27 Column_28 Column_29 Column_30 Column_31 Column_32 Column_33 Column_34 Column_35 Column_36 Column_37 Column_38 Column_39 Column_40 Column_41 Column_42 Column_43 Column_44 Column_45 Column_46 Column_47 Column_48 Column_49 Column_50 Column_51 Column_52 Column_53 Column_54 Column_55 Column_56 Column_57 Column_58 Column_59 Column_60 Column_61 Column_62 Column_63 Column_64 Column_65 Column_66 Column_67 Column_68 Column_69 Column_70 Column_71 Column_72 Column_73 Column_74 Column_75 Column_76 Column_77 Column_78 Column_79 Column_80 Column_81 Column_82 Column_83 Column_84 Column_85 Column_86 Column_87 Column_88 Column_89 Column_90 Column_91 Column_92 Column_93 Column_94 Column_95 Column_96 Column_97 Column_98 Column_99 Column_100 Column_101 Column_102 Column_103 Column_104 Column_105 Column_106 Column_107 Column_108 Column_109 Column_110 Column_111 Column_112 Column_113 Column_114 Column_115 Column_116 Column_117 Column_118 Column_119 Column_120 Column_121 Column_122 Column_123 Column_124 Column_125 Column_126 Column_127 Column_128 Column_129 Column_130 Column_131 Column_132 Column_133 Column_134 Column_135 Column_136 Column_137 Column_138 Column_139 Column_140 Column_141 Column_142 Column_143 Column_144 Column_145 Column_146 Column_147 Column_148 Column_149
feature_infos=-1:1:0 -1:0:1 -1:0:1 -1:0:1 -1:0:1 -1:0:1 -1:0:1 -1:0:1 -1:0:1 -1:0:1 -1:0:1 -1:0 -1:0:1 -1:0:1 -1:0:1 -1:0:1 -1:0:1 -1:0:1 -1:0:1 -1:0:1 -1:0:1 -1:0:1 -1:0:1 -1:0:1 -1:0:1 -1:0:1 -1:0:1 -1:0:1 -1:0:1 -1:0 -1:0:1 -1:0:1 -1:0:1 -1:0:1 -1:0:1 -1:0:1 -1:0:1 -1:0 -1:0 -1:0:1 -1:0:1 -1:0:1 -1:0:1 -1:0:1 -1:0:1 -1:0:1 -1:0:1 -1:0:1 -1:0:1 -1:0:1 -1:0:1 -1:0:1 -1:0:1 -1:0:1 -1:0:1 -1:0:1 -1:0:1 -1:0:1 -1:0:1 -1:0:1 -1:0 -1:0:1 -1:0:1 -1:0:1 -1:0:1 -1:0:1 -1:0:1 -1:0:1 -1:0:1 -1:0:1 -1:0 -1:0:1 -1:0:1 -1:0:1 -1:0 -1:0:1 -1:0:1 -1:0:1 -1:0:1 -1:0:1 -1:0:1 -1:0:1 -1:0:1 -1:0:1 -1:0:1 -1:0:1 -1:0:1 -1:0:1 -1:0 -1:0:1 -1:0:1 -1:0:1 -1:0:1 -1:0:1 -1:0:1 -1:0:1 -1:0:1 -1:0:1 -1:1800:2400:2000:1500:1200:2500:2600:1980:2200:3600:2680:500:3200:600:1600:2980:0:2800:1000:2580:300:1900:2300:800:3000:1680:1280:1300:2380:499:1890:2250:650:999:1990:1480:1490:1580:2049:3800:2388:1888:1790:199:1399:380:2850:2480:899:2880:1880:3500:4800:3590:2180:3680:990:400:200:880:4190:750:1499:2100:1299:1400:2890:150:350:1390:1960:4200:2046:900:7680:1290:3990:850:3490:4500:2066:2460:599:1199:3480:3980:3349:2450:2799:2699:2340:2988:950:1590:3400:2199:1999:550:2280:1050:1380:2190:2240:588:1688:2790:6200:799:1190:3888:450:890:1100:1750:1350:3850:2999:185:2900:2488:3300:100:2499:3999:1690:3288:4990:790:3450:299:1488:2780:3599:4288:2888:220:980:2399:1090:1370:3550:2490:3890:2160:2866:4000:820:3700:4230:6800:2390:250:1799:2700:3188:4280 [0:2438] [-5.3024735450744629:6.3003511428833008] [-4.0246505737304688:4.673011302947998] [-4.8205204010009766:5.0510530471801758] [-4.8774909973144531:5.4728217124938965] [-3.7397031784057617:4.4552812576293945] [-4.1512918472290039:4.2532620429992676] [-3.4566256999969482:4.4370536804199219] [-3.5833315849304199:5.294133186340332] [-3.1787617206573486:4.5699152946472168] [-4.1373019218444824:5.1978397369384766] [-3.3281731605529785:3.3783984184265137] [-2.9560527801513672:4.6460509300231934] [-3.1254584789276123:4.2980737686157227] [-2.9847996234893799:3.7436597347259521] [-2.9730086326599121:3.9082653522491455] [-3.4942374229431152:3.638850212097168] [-3.0217490196228027:3.6200439929962158] [-2.8279972076416016:3.148550271987915] [-3.2906243801116943:3.3410530090332031] [-3.1077263355255127:3.5791935920715332] [-2.4635763168334961:3.4760897159576416] [-2.8574638366699219:3.2100315093994141] [-2.8942365646362305:2.9819903373718262] [-2.9177134037017822:2.9440529346466064] [-2.4649722576141357:2.8532619476318359] [-2.4491088390350342:2.596205472946167] [-2.7871086597442627:3.259324312210083] [-2.8008236885070801:3.340400218963623] [-2.6238188743591309:3.5022778511047363] [-2.7111773490905762:2.8560476303100586] [-2.3475778102874756:2.369110107421875] [-2.3190762996673584:2.8764445781707764] [-2.2980220317840576:2.9073870182037354] [-2.5575637817382812:6.0345449447631836] [-2.2824523448944092:2.1889793872833252] [-2.395859956741333:3.9575483798980713] [-2.5808000564575195:2.9132943153381348] [-2.5904660224914551:2.9297454357147217] [-2.2684512138366699:2.8845887184143066] [-2.3199930191040039:2.9952516555786133] [-2.0218439102172852:6.3144607543945312] [-2.1918308734893799:2.5350854396820068] [-2.5108251571655273:5.3068256378173828] [-2.4680144786834717:2.5695638656616211] [-2.3948976993560791:6.1803245544433594] [-2.1809070110321045:2.8473427295684814] [-2.0292716026306152:2.40657639503479] [-1.9692815542221069:2.8825864791870117] [-2.12502121925354:3.1716816425323486] [-2.0403058528900146:4.3662428855895996]
tree_sizes=27567 33949 32864 33547 27726 27758 30813 31492 27578 31591 31629 31529 31560 27623 31356 30439 31196 31235 31646 31827 27632 27568 27631 27568 32192 32713 31797 31298 32118 27802 32272 32909 31696 32234 27556 31541 27568 32107 32336 32557 31499 31323 33512 32066 32394 27620 33421 32586 32376 33379 27824 32539 32575 32619 27645 27774 33049 33472 33027 27843 32434 33415 34046 33303 32921 33233 34084 32969 34635 34099 27806 32140 33839 33215 34217 33897 33184 34377 32887 32931 33754 33427 33144 32381 33960 33697 27784 27879 34828 34687 27771 35148 34084 34145 34818 27802 35429 34653 27897 27872

Tree=0
num_leaves=255
num_cat=119
split_feature=117 100 107 100 105 134 134 133 101 138 103 121 126 142 101 141 107 100 100 103 139 101 139 95 100 72 110 100 100 100 101 9 142 136 100 54 71 17 0 110 143 119 107 83 118 125 111 0 118 65 110 27 145 149 145 125 111 135 54 118 149 133 126 103 129 89 134 126 109 80 79 111 143 126 100 145 101 106 82 143 33 77 108 96 109 138 147 42 82 100 137 0 65 72 138 62 33 146 141 100 42 107 118 106 147 106 100 71 133 149 7 27 124 101 96 0 82 33 149 89 17 19 1 112 24 89 0 131 49 125 71 127 100 32 1 5 110 142 109 107 139 1 72 69 121 26 139 9 71 140 111 142 137 64 101 105 101 72 66 121 32 17 143 110 77 106 137 72 111 110 126 133 129 101 33 126 56 63 65 103 106 13 55 89 108 72 117 137 81 43 0 112 117 7 80 79 17 80 0 72 5 69 69 20 101 93 72 77 64 112 65 101 0 36 72 89 137 69 7 111 1 17 80 66 106 100 66 73 110 83 93 80 112 106 45 71 59 56 19 1 19 64 46 101 72 113 36 49 44 75 71 28 14 49
split_gain=59002.6 45866.1 30129.5 23072.4 22459.9 18344.9 14996.2 9559.79 7049.41 6325.3 4751.5 3181.29 2776.54 2756.28 2184.37 1446.93 1327.1 906.481 923.864 853.417 508.515 374.078 186.77 152.611 135.383 147.955 123.386 85.3347 57.4227 57.2565 54.4517 35.6413 47.3102 34.3089 32.8672 31.6943 31.3927 30.6053 42.9358 29.3281 27.9095 27.3987 27.228 25.4241 23.2527 22.6773 23.3727 22.4738 22.4676 22.2939 20.5197 20.5146 20.391 20.2059 25.5902 20.7829 19.6076 18.4828 17.4302 16.4807 16.3018 17.4614 16.1168 15.9247 15.7383 15.5232 15.1403 14.1367 23.9328 13.847 13.7905 13.3838 13.1346 12.903 12.9026 12.8677 12.4118 12.1976 12.163 12.1456 11.9848 12.5414 11.958 18.1444 11.9538 11.9102 11.8826 11.8703 11.3978 11.984 11.2564 11.1209 22.2467 11.1006 10.9403 10.7386 14.2656 10.6338 10.4447 10.3609 10.2426 10.2397 10.2084 9.83418 9.79768 9.67633 13.7766 9.66845 9.22907 8.85422 8.82189 8.81222 8.7156 8.67029 9.52391 8.58386 8.51618 8.51455 8.50917 8.45228 8.22133 14.7003 8.53154 8.2 8.19754 8.16496 7.97829 7.96005 7.90642 7.90367 7.74688 7.74049 7.62021 7.53521 18.1999 8.09989 7.48721 22.1207 12.881 19.4065 15.0246 7.42701 7.38085 7.30303 7.14414 7.03666 7.02769 6.99285 6.90933 6.82551 6.72559 19.3644 14.8059 10.5675 9.47596 8.64832 14.2053 6.59049 6.5815 6.54322 6.50142 6.50002 6.49297 6.48259 6.47082 6.45146 6.37972 6.34786 10.4212 6.3311 6.46616 6.23926 6.16512 6.11164 6.04222 6.03013 5.97353 7.29748 5.94574 5.92716 5.90602 17.3292 7.93228 5.87308 5.79817 5.78943 5.76922 5.70066 5.67852 5.58136 5.53737 5.52685 14.9598 5.51847 14.2681 6.56169 5.48433 5.60623 5.88519 5.39745 5.38385 5.36481 5.35466 5.34833 5.33743 5.317 5.27993 5.26014 5.24907 5.19437 5.15408 5.15002 9.0518 5.1419 5.1212 5.10678 5.0768 5.01702 5.00961 4.96089 4.94957 4.94196 4.89552 4.82584 4.81412 180.354 8.75939 5.52951 4.7308 4.69313 4.67728 5.20323 4.63649 4.56569 4.55392 4.54964 4.53647 4.51196 4.49397 4.47479 5.94725 4.4328 4.41569 4.39929 5.11879 4.86806 4.37001 4.34879 5.2998 4.30797 4.98938 5.27832 4.58703 4.28786
threshold=-0.69533616304397572 -0.039115343242883675 1.1965262889862063 -3.7372984886169429 2.8993690013885502 0.11502770334482194 -1.3032732605934141 0.5295485556125642 -3.6181855201721187 -0.086685571819543825 -1.2755401134490965 1.0639929175376894 -0.46302028000354761 -0.51501551270484913 -3.6879975795745845 0.96347904205322277 1.7934427857398989 2.07012951374054 -1.3385173082351682 2.9194186925888066 -0.60329863429069508 1.8655185103416445 0.38570247590541845 0 -4.7528531551361075 1 -0.70905467867851246 -0.048332044854760163 -0.42782953381538386 -1.2233895659446714 1.6858191490173342 2 -0.43255822360515589 1.1773408651351931 0.75386512279510509 3 4 5 6 0.46214799582958227 0.78673037886619579 1.918828070163727 -2.7917363643646236 7 -1.6041439771652219 -0.23618585616350171 -1.8906421661376951 8 1.8470356464385989 9 -1.0881969332695005 10 0.76809278130531322 0.0065108090639114389 0.71223783493042003 -0.20598140358924863 -0.18909343332052228 1.8499611616134646 11 0.90402713418006908 0.022746385075151924 0.31532517075538641 -1.3935885429382322 1.6490638256073 -0.076198302209377275 12 1.2339725494384768 1.1442711949348452 -0.80438730120658863 13 14 2.7667504549026494 -1.4039506316184995 -1.0278936624526975 4.509549856185914 1.0573200583457949 -2.043686985969543 0.18895446509122851 15 0.42775212228298193 16 17 1.5982182025909426 18 1.8304257988929751 1.5531689524650576 0.8753357231616975 19 20 -1.0007524490356443 -0.058199657127261155 21 22 23 -1.3553964495658872 24 25 -0.48290620744228357 2.170781254768372 1.9548498392105105 26 -1.8888593912124632 -0.22419987618923184 -2.3563081026077266 0.84901428222656261 3.2413557767868046 1.8805204629898074 27 -0.7774733006954192 -1.5152614116668699 28 29 -0.13438063859939572 0.75708231329917919 30 31 32 33 1.0707992315292361 34 35 36 37 2.4347615242004399 38 39 40 -0.50219276547431935 41 1.0248600840568545 42 -1.7014381289482114 -2.6667889356613155 43 44 45 -0.58148494362831105 -1.0584381222724912 -0.86600255966186512 0.75643417239189159 -0.78890153765678395 46 47 48 -0.11844057962298392 49 -1.4177914857864378 50 51 1.2972032427787783 1.0194061398506167 0.80953410267829906 1.4305490851402285 52 -1.5092621445655821 1.6452988386154177 3.2156134843826298 53 54 -0.88851651549339283 55 56 -1.2969645261764524 -0.88288110494613636 57 -0.382858395576477 -1.3958588838577268 58 0.43518961966037756 -0.62057337164878834 1.3199430704116824 1.303291440010071 2.3492732048034672 -1.8529264926910398 59 0.92801323533058178 60 61 62 -1.0000000180025095e-35 0.77034914493560802 63 64 65 3.5053371191024785 66 2.0958158969879155 -0.8853340446949004 67 68 69 -1.0705205798149107 0.77330914139747631 70 71 72 73 74 75 76 77 78 79 80 0.58457964658737194 81 82 83 84 -0.71643227338790882 85 1.9195214509963991 86 87 88 89 1.4218348860740664 90 91 -0.56610286235809315 92 93 94 95 -0.48842608928680414 -0.087402042001485811 96 97 1.3784108161926272 98 99 100 -0.39077197015285486 1.818192780017853 101 102 103 104 105 106 107 108 109 0.57364782691001903 110 -1.3558562994003294 111 112 113 114 115 116 117 118
decision_type=2 2 2 2 2 2 2 2 2 2 2 2 2 2 2 2 2 2 2 2 2 2 2 1 2 1 2 2 2 2 2 1 2 2 2 1 1 1 1 2 2 2 2 1 2 2 2 1 2 1 2 1 2 2 2 2 2 2 1 2 2 2 2 2 2 1 2 2 2 1 1 2 2 2 2 2 2 2 1 2 1 1 2 1 2 2 2 1 1 2 2 1 1 1 2 1 1 2 2 2 1 2 2 2 2 2 2 1 2 2 1 1 2 2 1 1 1 1 2 1 1 1 1 2 1 1 1 2 1 2 1 2 2 1 1 1 2 2 2 2 2 1 1 1 2 1 2 1 1 2 2 2 2 1 2 2 2 1 1 2 1 1 2 2 1 2 2 1 2 2 2 2 2 2 1 2 1 1 1 2 2 1 1 1 2 1 2 2 1 1 1 2 2 1 1 1 1 1 1 1 1 1 1 1 2 1 1 1 1 2 1 2 1 1 1 1 2 1 1 2 1 1 1 1 2 2 1 1 2 1 1 1 2 2 1 1 1 1 1 1 1 1 1 2 1 2 1 1 1 1 1 1 1 1
left_child=1 7 3 11 34 9 12 10 14 82 48 56 30 -12 -8 16 19 18 -11 21 -20 26 59 28 25 36 27 -15 91 87 88 112 65 41 103 43 70 38 58 77 73 42 117 120 -35 63 204 51 118 147 97 69 159 55 57 179 -2 62 78 -22 -56 158 237 67 -41 174 72 105 145 100 116 75 -64 113 84 98 79 209 193 -74 81 126 -4 184 129 86 94 -25 201 229 124 207 111 -66 -78 96 -53 157 150 -73 110 236 -43 -3 167 109 -107 160 -99 -44 164 213 -28 114 -9 -37 196 171 211 -72 122 -122 -31 136 -70 -109 173 206 -100 -46 -40 -105 -96 135 -135 230 -111 189 139 165 -140 -86 -54 200 190 -69 -134 249 228 219 151 152 155 154 -153 156 187 -36 -62 -52 -39 -149 -148 -58 -29 -139 -161 -65 -169 170 -14 -10 186 -51 -33 -75 177 -137 -158 -48 -34 -182 -183 -81 208 -32 191 218 -67 -138 203 192 -164 194 -27 -196 197 205 -199 -131 -104 -5 -68 -18 -47 -13 -79 253 -84 -7 -126 -1 -213 239 -30 -6 -150 -201 -57 -142 247 -203 -185 -188 225 -114 -227 -228 233 -90 -61 -232 -157 -133 -88 -206 -77 242 -101 240 -93 -23 -55 245 -245 -189 -113 248 -50 250 251 -26 -253 -24
right_child=2 4 5 6 215 39 8 40 33 17 13 24 169 15 -16 -17 144 -19 20 -21 22 241 23 29 49 37 31 47 214 35 185 32 180 44 50 115 -38 107 130 64 -42 102 45 -45 74 46 53 -49 220 80 52 95 142 54 60 71 163 -59 -60 133 61 -63 66 104 93 188 202 68 90 -71 119 99 76 175 -76 101 85 127 -80 183 -82 -83 83 -85 141 -87 234 -89 89 -91 -92 92 -94 -95 132 -97 -98 108 128 238 -102 -103 143 131 -106 106 -108 125 -110 123 -112 246 224 -115 -116 -117 -118 -119 -120 -121 121 -123 -124 -125 210 -127 -128 -129 -130 199 -132 148 146 134 -136 176 137 138 140 -141 149 -143 -144 -145 -146 -147 162 161 216 -151 -152 153 -154 -155 -156 232 178 -159 -160 166 -162 -163 172 -165 -166 -167 -168 168 -170 -171 -172 -173 -174 -175 -176 -177 -178 -179 -180 -181 181 182 -184 222 -186 -187 223 243 -190 -191 -192 -193 -194 -195 195 -197 -198 198 -200 217 -202 221 -204 -205 235 -207 -208 -209 -210 -211 -212 212 -214 -215 -216 -217 -218 -219 -220 -221 -222 -223 -224 -225 -226 226 227 -229 -230 -231 231 -233 -234 -235 -236 -237 -238 -239 -240 -241 -242 -243 -244 244 -246 -247 -248 -249 -250 -251 -252 252 -254 -255
leaf_value=0.064047880377080202 0.028510110848980658 -0.020372979592191275 0.06455129980920439 -0.068255577937299208 -0.068741507358413556 0.062022281416231832 0.067098128061249263 -0.051345081842189347 0.033898491783541734 0.063670618947222368 0.063209808392509698 -0.061746401496152584 0.053798150981204322 0.025229391328975594 -0.068742613136009323 0.060875438862682103 -0.033478324379039519 0.062091761926664379 0.058485227498911052 0.063452981637779945 -0.069114567807333868 0.055192409391525907 -0.060786063226624103 -0.057565140462345371 -0.066303097122200463 0.011149944731759575 -0.069104287715367516 -0.051635256323579709 0.044428161846732518 0.0023633467866762512 0.040247444452833042 -0.027872658574764578 -0.064907217614483204 -0.031737089895331902 0.029931677571564376 -0.069999999999999993 -0.011083805653658832 -0.067974085420165462 -0.059012229255645463 0.056222444309880805 -0.0024023951590312074 -0.0085575134385097347 0.0099882248199724463 -0.05442709706911384 0.061513475140549403 0.044158332359867179 0.047216863493719258 -0.063779812761080593 -0.026284573376065327 -0.033851606527596827 0.025924712860372779 -0.016120928840403653 0.028609573321869832 -0.045434610935632114 -0.068559301804362913 0.060388840667565023 0.052869966494742265 0.0016044413169735122 -0.042670648151105939 -0.066331191542345819 -0.041612645878936601 0.05727931703494684 -0.031395728856195342 0.053002341455308417 0.031187031539031383 -0.069999999999999993 0.044333220581759182 -0.050510705942907408 -0.069999999999999923 -0.064777638817213892 -0.050066350018810171 -0.069999999999999757 0.060369172312411019 0.066624311743433209 -0.030731804559649193 0.05473921974998569 0.027006785343563502 0.036289741863825976 0.035020056006909633 0.041663293802122928 -0.064908064677811766 -0.070000000000000007 -0.06999999999999991 0.065799399585932769 -0.039396636476948951 -0.018175798301642218 0.045071848140817647 -0.022453157918625701 -0.02871797783161684 -0.070000000000000007 0.063506935158130384 -0.055626825664507752 -0.02660043136434586 -0.036150001286866448 0.035613804859157008 -0.053188821750937032 -0.048423591985336654 0.021068912872503703 -0.060873862644911521 0.062259574110882128 -0.070000000000000007 0.060097693549227692 0.050822432336444394 0.0021110463161905617 0.064742369522278215 0.056271538256621324 -0.04646160578450869 -0.0036071976006779617 0.060660278381183028 0.069363757598637429 -0.039267019063393048 -0.019660656462990912 0.05079864510591485 0.049734976397851315 0.053215400273043105 -0.0178676398353 -0.027734864129511611 0.056649129971306562 0.02985681995899846 -0.013737277515931104 -0.052589948233117627 0.014792734990978046 0.029768872192586428 0.015628873460407432 0.042468759881615574 -0.047130626528603427 -0.059605710880032928 0.060058135826384737 0.061565463011291774 0.053385354377866852 -0.025178109362249731 0.06172154969877186 0.038632461268056445 -0.06461356599505727 -0.023272212392380268 -0.05217476351188078 -0.035765544571286417 0.064405876444316501 0.033100942025577014 -0.0061613524746793229 0.065083812112965586 0.041653372987173767 -0.064759702610354769 -0.02948830879792088 0.061934880668332012 0.058541977494591883 0.039618183414704675 -0.042819718893408763 0.045590366265870694 0.044799837075541284 0.068951836344075104 -0.053525742328277177 -0.043479893319132469 -0.066710707234051064 0.048119751654758527 0.061586236256655144 0.035910431250390361 -0.064970270340087538 0.030380398789426111 0.025288063704965228 -0.029654321080733945 -0.070000000000000007 0.061770846872920337 0.065925670471811193 -0.065696212073426061 0.05182702151164046 0.069050403694192936 -0.05435620549056077 0.038547251521529678 0.063063995948044016 0.014583046538371334 -0.014891895892577564 0.024746605486403204 -0.054093403321770463 0.0034010025550147011 0.04838684050582303 -0.070000000000000007 -0.014920393149105499 -0.068336226354670487 0.0019345061569994559 -0.065315597098149408 -0.033796130954572498 -0.0570303494790705 -0.044179794909210153 -0.051276202699660801 -0.064269611327135726 -0.013299160163048511 0.029872236392614909 -0.033659232490714369 0.054508086519129993 0.050487863002195835 0.066835937349092336 0.0030540200823676242 0.015114405479220301 -0.035954158341666237 -0.0036750445895390419 -0.068145484748093857 -0.036438441375947775 -0.070000000000000007 0.03552596036907147 -0.037008866466015089 -0.053678042011597295 -0.029170855763985405 0.05585887658442782 -0.022777812971486257 -0.037721417231639263 -0.043887115564529247 -0.068004417823726737 0.028144105058334763 0.069062979773604788 -0.070000000000000243 0.052044456918732378 -0.069999999999999951 -0.045307661446473031 -0.052390776500646365 -0.064929855326680358 -0.070000000000000007 -0.038805633962852457 0.020301096975338391 0.068951155648808285 0.040304826653663584 -0.070000000000000007 0.028279687899567266 0.058641993347978268 -0.067894025846376563 -0.068428424813148522 -0.048089763123281684 -0.070000000000000007 0.015195055704279857 -0.052667792288310075 -0.061851762839597695 -0.028682093371637862 0.045129630422659522 0.042736801329728118 0.06450421858006275 0.035511066426322478 -0.050017069066472734 0.042170103144118266 0.032198899129618153 -0.06085917065409558 -0.028019316268144589 -0.035324696959934392 0.052360450453026931 0.066616095925190064 0.058722403570363006 0.06850399589758413 -0.050557320246893883 0.055255565088311143 0.057295771090463889 -0.070000000000000007 -0.057509923158710591 -0.048714005701068964 -0.070000000000000007 -0.047361075550531304
leaf_weight=346.04425935444306 21.564994204993127 1.9146165671700135 497.14630990491423 1183.8414390956968 1323.0212430921383 139.04088315856643 188.48016375876614 2.425851574313131 20.748182011251632 69.526849971618503 204.71028883557301 231.61167606747767 59.07057490083389 15.464670617962836 628.76690107191826 109.95404609480465 2.4328563324379502 71.478524943842785 40.857376861735247 61.304037251305999 4500.9175414894416 30.808836488722591 508.81006561903268 43.672858005556918 1236.0830061423621 30.381592626159545 10441.25855311273 292.48778989241691 7.2592640722286879 25.503025440077181 6.4635804367426308 15.813028693082742 736.8034476201974 3.5074734075460574 6.6618907532538278 9.7552295089990366 17.72031054602121 19.867084908095421 20.675863060241682 46.234868525716593 7.5531525612459509 4.4874602865893385 3.1424225642113006 8.1159481009235588 416.90503164367692 5.6473762057685217 7.2013817065162584 438.96602678758791 5.4168838247132935 72.517864005654701 4.3192442911677054 35.999227659543976 7.7546323885035218 2.4226087909191838 1.4460862765263289 79.693228401354645 59.156358006221126 5.6973390620842101 10.801313847128766 487.20951606926246 1.6465517837787047 90.873452767176786 1.7283914884319518 63.129649781811167 19.119023067207308 10.642578132363269 32.855171873059589 3.1387250057596239 0.90624984900932759 169.42158445180394 22.603055407045758 0.97265936902840877 99.378023785035111 693.64490301816841 1.9685735912644293 0.76417913963086903 8.7982573530462087 7.6981437082868052 13.501342225586994 25.024115729524055 83.70439494933089 27.25479575782083 0.69741898799838964 21.972457424199092 2.3252059312944757 2.07849331293255 46.75414054171415 16.158602190371312 20.195658087555785 29.480522632919019 145.90328435295669 54.653291978884226 32.708008691592113 3.5569249228574362 10.012268594087798 45.30655178942834 31.316347877786029 7.5056682440044815 1.3557028342620461 11.608450100233313 39.551447662292048 229.76066876735422 45.014350983517943 2.8993515949405255 116.36992924500373 43.434870944212889 1.6601475047064003 10.26749711332377 184.73111751078977 8402.1405416139169 62.65473013369774 11.138626371404825 16.124025267665274 18.250413219037 1.9052359080233143 6.4122100935201169 9.4786487854144053 21.147431577614043 9.41969575564144 12.01555417710915 6.3528651815940975 10.556789495647537 30.62489547124278 3.5592545853578477 14.084288451907922 10.870163652070914 30.001459556588088 135.8488155688101 1.2342401987407357 61.87541983788833 13.838507491120252 400.89560265390901 11.282781379617516 40.149477689796186 19.322768990066834 24.306302613214939 3.1581992685969444 314.25898663612315 14.842383024457375 5.1257508018461513 463.05669593115454 3.4251029011793435 1.1972590789664534 1.4936007930082258 92.967466138070449 0.94245944428257633 11.121231884229926 30.588059939866071 31.910499101086316 14.973285402491454 3186.9826849082601 1.1607497205550306 1.485002546571194 1.0706980958930206 35.034838215375203 84.281714224416646 11.656315029118558 1.0357745710061861 28.140800028253583 4.0836196080781511 7.4604498528642607 16.642217479238752 95.177940568159102 219.30288825010575 46.461430206487421 59.385904707742156 5744.4602226961761 1.722895744271226 10.451271654150331 188.83065002889634 5.6428582863882175 3.7985143218829753 4.3434671189170322 24.4273978386409 14.514168945082929 22.94386993595981 13.405387163853446 8.7632096039596927 0.71110824689094343 6.9664728476382134 145.59422199506662 39.515405322774313 33.059714839371736 1.906417247446373 1.3602267011592619 0.7217205139750148 2.0120669107418498 4.0020373419756643 10.428554214362521 1.1424901538994161 6.4639700824918673 2746.3562155733525 5.629824406001716 20.097850539343199 18.399372376545216 13.284444303848433 104.63525092382042 24.443076772760833 8.6709929480566625 11.359501254570203 0.87148104418883932 61.445039479236584 1.2606575463723846 1.2389449961192442 4.4878142280358588 11.862289288896134 1.1574368928559122 124.25482665069285 15.591791919432584 1671.3346814702672 0.51748013141331917 3.5142861784552215 0.9445338663063011 36.880399228237366 0.73721287859370921 638.33089896827005 0.47235006355913256 1.2330766898812715 4.0109036199864923 3316.3094343533903 7.1323995135608129 36.060716630017851 2.8493666491704062 2.6421595210558735 9271.2569181179351 768.39444697338331 44.38784936646698 20.685603371530306 2.7821884297300121 19.898232476378325 18.179352474937332 8.5030147666111606 27.919587318407139 16.142755053559085 21.59712711017346 2.585357293515699 1.5012091499229421 2.25899417308392 12.820160172588658 296.88704587300526 11.584835385579934 0.67732577817514794 0.73784815979888696 759.57879137701821 116.00233362260042 2560.3153983714637 11.293785393601866 1.4393488436471669 1.1218390843714585 281.6940795619812 94.971744101989316 39.231497767905239 18.134123369702138 30.914719471729768
leaf_count=573247 238743 47863 717314 84649 32592 286608 143378 88682 195850 143724 334721 40099 238876 191240 47933 286806 79405 143363 143512 95524 238984 131486 60725 3446 92322 2495 365625 11647 68018 4284 73182 1287 21198 95455 73115 3153 1882 3503 3522 191375 143332 95664 47886 2288 908321 47860 47916 18861 116628 3943 47748 1011 109936 73438 47758 208770 286844 95575 1510 77358 28382 286261 47831 366055 219913 1262 218357 91352 31522 7260 3559 47739 286675 621429 47799 3785 95678 73326 644 196219 6073 2039 16243 20986 63624 47860 288166 889 1014 2180 286977 6216 2796 66869 95489 1768 1213 95578 43614 23726 1760 620992 241694 47738 143480 143315 47812 969 478107 1338948 2260 886 91267 95759 7021 1317 1221 60415 95547 1243 1851 1329 3012 47759 102566 1598 2113 334700 3851 292827 1811 942908 95620 6079 2026 3412 89782 430398 143572 95452 621312 31913 33336 24820 190909 4381 95445 1907 117968 95369 860858 43758 47872 23809 218891 191202 126896 22337 306623 47766 945 1241 191093 238918 2033 286817 1528554 44711 66968 334271 95579 78396 47838 1947 820 143372 2057 819 16186 143322 5912 1272 1244 64185 44263 22369 43842 47835 867 5940 56324 2198072 95497 1481 2605 1296 18453 3372 1558 69396 20023 4069 20786 7779 128732 1749 22285 15268 205382 382583 9256 18875 29024 3809 19182 15066 9838 20052 30086 908364 63926 2558 26448 4047 227967 42509 2119 1114 42862 1193 2798 963 191074 128658 46376 14683 43956 17464 119703 35023 1018 11926 4928 732662 223556 1051734 1223 7061 3512 20894 6842 2593 1387 3223
internal_value=0 -0.0344814 0.0294249 0.0467125 0.0361552 -0.0260365 0.0569649 -0.0587628 0.0636755 -0.0524559 -0.0626588 -0.0472253 -0.0464961 -0.0646518 -0.0374139 -0.0657872 -0.0663943 -0.0618707 -0.0632307 -0.0669599 -0.0645995 -0.0673109 -0.0653846 -0.0534502 -0.0597338 -0.0456583 -0.0674777 -0.0564458 -0.0579554 -0.0211387 -0.0663454 -0.0680801 -0.0616489 0.0671135 0.0678289 -0.00457411 -0.0567278 -0.0197709 -0.0115227 0.0669497 0.0645355 0.0673067 0.0673629 0.00434091 0.0580651 0.0674155 0.0661995 -0.0575326 0.0609288 -0.064287 0.0685223 -0.0537407 0.0689048 0.0662575 0.0639767 0.0672996 0.0606621 0.0645873 -0.000525201 -0.0683777 0.0482564 0.0496564 0.0647016 0.0683906 0.0445085 -0.0289384 0.0648059 0.0685404 0.0583772 -0.0562724 -0.0586294 0.0673837 0.0650612 0.0652195 0.0586962 0.0674743 0.0651151 0.0677406 0.00423336 0.0544938 -0.0542458 -0.048458 0.0630765 0.0445719 0.0590503 0.0655773 0.065636 -0.0480825 -0.0668565 -0.0530599 0.0604936 -0.0586231 -0.0544091 0.0206246 0.0659763 -0.0400152 -0.0311487 0.0574993 0.0677478 0.0420233 -0.053006 0.0593676 0.0418965 0.0587832 0.0583768 0.0686734 0.0524895 -0.0437641 0.0591145 0.0687313 -0.0513324 -0.0565622 -0.0683948 0.0391699 -0.00534915 -0.0493236 -0.0605054 0.0403717 0.0626841 -0.0374571 0.0108712 -0.0105226 0.0173165 0.068746 0.0321434 -0.0259894 -0.0438331 0.0579623 -0.00252527 0.0596374 -0.0454465 0.0591162 0.066095 -0.0630271 -0.0511816 -0.0642843 0.068761 0.0675528 0.0676343 0.0614787 0.0682464 0.00887984 0.016122 0.0466752 0.0588928 -0.0253274 0.066201 -0.065678 0.0594817 0.0683839 0.0677743 0.0667564 0.0670128 0.0416546 0.0448601 0.0670577 0.0673613 0.017162 0.0264008 0.068987 -0.0575127 -0.0523971 0.0663095 0.0631521 -0.0535627 0.0624066 0.0690193 0.0485399 0.0253995 0.0598263 0.0503787 0.0263484 0.0664134 -0.038952 -0.0129055 0.0660404 -0.0502917 -0.0423026 0.0299164 0.0249511 -0.0634095 -0.0583512 -0.0443799 0.0348873 0.0181451 0.0297493 0.0664768 0.0674927 -0.0520142 -0.0117841 0.0309903 0.0665405 0.0584917 -0.000825609 -0.00598726 -0.0224201 -0.0613202 -0.0587382 -0.0452266 0.0491345 0.0491543 -0.0676056 0.0416171 -0.00333403 0.0187857 -0.0605759 0.0258105 -0.0615118 0.0239421 0.0685222 0.0384829 0.0635663 0.0261912 -0.0577593 0.0355022 -0.067501 0.0439043 0.0282473 0.0584679 0.0684773 0.0191191 -0.0597144 -0.000766629 0.0275411 -0.067663 -0.0651413 -0.0673843 -0.0550546 0.0606832 -0.0406041 -0.0655498 -0.0512814 0.0574913 0.0609867 0.0512119 -0.0014723 -0.0146798 0.00439635 0.0464837 -0.059024 -0.0507984 0.0532452 -0.0226031 0.0677123 0.0655703 0.0684437 -0.0352158 0.000179014 -0.0119448 -0.0660536 -0.0652529 -0.0658214 -0.0554428 -0.0600171
internal_weight=0 32758.5 38494.7 29347 8380.12 9147.65 26459.3 24378.4 24847.6 7123.66 23631.7 2887.76 1611.65 23256.7 817.247 23052 22942 6586.89 6515.42 22838.9 6445.89 22777.6 6405.03 1284.27 2587.74 632.486 22746.1 1177.63 1127.12 157.152 1358.11 21568.5 1006.37 24030.4 6418.77 97.321 443.041 189.445 140.98 2023.99 746.723 23527.8 23475.9 81.1535 502.599 23430.2 10426.8 1162.17 375.033 1955.25 5961.75 723.199 5761.81 10414.1 3266.03 7148.09 300.024 3143.92 106.466 5120.76 122.107 120.661 3138.23 13003.4 68.9108 51.3983 3132.81 12811.7 165.492 610.577 425.321 7133.92 3098.69 739.17 499.092 7108.52 3096.96 1955.08 95.6646 129.158 237.906 154.202 536.768 39.6219 497.123 2967.81 2965.73 59.8315 1350.92 69.5744 161.411 1119.13 455.146 22.6759 2897.38 112.622 67.3156 199.934 6876.5 25.4013 441.155 232.026 51.8669 457.017 191.674 12646.2 45.095 48.4652 192.237 12601.1 401.604 422.438 20562.1 22.5815 4.33109 16.1674 390.702 45.6941 359.923 34.6186 73.0376 16.9097 56.1279 12598 15.508 21.1377 126.947 144.704 2.58994 491.373 34.5144 455.103 2888.58 619.839 59.4722 560.367 12594.4 4192.25 4187.95 378.771 3809.18 5.75031 8.95189 47.3794 103.103 4.08118 2878.57 1717.34 452.203 3794.34 6873.91 3686.92 3649.66 37.2663 36.1956 3648.17 3535.97 7.69767 29.7874 5752.86 27.3275 47.2303 2867.28 278.459 338.949 373.645 5748.54 75.3038 12.1742 253.544 64.7134 24.5467 2856.16 96.9453 30.3272 716.589 46.4749 33.0695 12.3674 14.1679 954.973 218.169 72.5751 29.7799 17.6494 7.1853 2851.82 3523.6 21.0711 4.30069 10.1358 2847.16 100.808 82.1633 62.0654 31.6838 381.223 276.588 33.1141 74.468 45.8858 1281.35 34.1158 3.6718 12.7205 243.474 8.85558 663.98 16.2892 1810.38 14.6018 350.503 4.45882 400.006 7.99648 1961.35 32.3828 12.5926 83.7041 3779.37 15.1105 97.5058 4.75578 4.65423 10120.8 849.592 833.468 65.0735 419.821 40.0939 513.892 26.6824 112.201 417.038 68.3513 7.07317 2.26539 5.41945 24.4286 363.125 66.2381 31.4862 3.16046 3439.9 875.581 2564.32 22.4324 7.97807 6.53872 1670.11 1388.42 1293.45 57.3656 539.725
internal_count=31735515 8027781 23707734 20121836 3821970 3585898 19118515 4205811 18258575 2008239 3106216 1003321 859940 2198396 191311 1863675 1576869 1004051 860688 1242452 716964 1146928 573452 238956 238816 95515 1003516 239053 217387 21569 191214 764463 33862 18067264 3774312 17234 73136 22379 15364 1577659 1099595 16537877 16155676 12764 1529387 15821015 10371021 47813 907820 143301 2436477 28952 1767340 10179746 5065953 5113793 764505 4396929 10031 334496 669024 621266 4301354 5449994 478157 4236 4205524 4828780 526054 24960 71254 4922555 3966381 956263 1433932 4731387 3918550 1099502 8521 573527 16115 10042 1004188 286874 1386133 3345023 3297163 4335 95663 4387 430321 130187 50971 286782 2962621 3992 2224 669137 4062654 191168 17700 668733 382201 1337835 621214 4302726 191127 7015 573685 4111599 15940 48175 730601 191462 95703 4470 66452 334661 716693 4802 10476 3180 7296 4063713 143344 2567 8003 430311 47465 1290596 5333 1289972 2866943 95512 8105 87407 4015954 2677006 2581284 812667 1768617 95537 143272 286537 334417 95733 2771454 127186 1242234 1625045 4015189 3154331 2867873 286458 262649 2820001 2437725 95452 335005 1624068 4448 3148 2675834 525762 13680 717215 1576320 477734 111679 668726 334455 274246 2580389 5890 2107 764801 6288 4231 143082 191238 29626 8428 2516 286852 265888 95551 2532551 2294643 2129 95722 143508 2484662 286590 7877 6396 3901 65231 46778 4930 382275 261717 91276 239143 87184 191275 41848 95611 79216 221625 669191 111822 621146 47899 46066 87200 47658 127806 89448 238856 1529676 191127 6627 90633 47889 364976 137009 45742 3233 1114428 2207 81119 3761 382276 1071566 334542 143415 47741 95830 143429 42257 7234 143412 78366 2055787 956218 1099569 2109 127201 120140 124038 103144 96302 3980 63948
cat_boundaries=0 1 2 3 4 5 6 7 8 9 10 11 12 13 14 15 16 17 18 19 20 21 22 23 24 25 26 27 28 29 30 31 32 33 34 35 36 37 38 39 40 41 42 43 44 45 46 47 48 49 50 51 52 53 54 55 56 57 58 59 60 61 62 63 64 65 66 67 68 69 70 71 72 73 74 75 76 77 78 79 80 81 82 83 84 85 86 87 88 89 90 91 92 93 94 95 96 97 98 99 100 101 102 103 104 105 106 107 108 109 110 111 112 113 114 115 116 117 118 119
cat_threshold=1 1 1 1 1 1 2 1 2 1 1 1 1 1 1 1 1 1 1 1 1 2 1 1 1 1 1 1 1 1 1 2 1 1 1 1 1 1 2 1 2 1 1 1 1 1 1 1 1 1 1 1 1 1 2 1 1 1 1 1 1 1 1 1 1 1 1 1 1 2 1 1 1 1 1 2 1 1 1 1 1 1 1 1 2 1 1 1 1 1 1 1 1 1 1 1 1 1 1 1 1 1 1 2 1 2 1 1 1 1 1 1 1 1 1 1 1 1 1
is_linear=0
shrinkage=0.035


Tree=1
num_leaves=255
num_cat=118
split_feature=98 98 126 98 106 115 124 143 110 135 98 101 117 98 147 98 80 100 110 98 120 124 136 131 109 113 98 77 135 62 98 138 68 112 143 98 135 140 148 142 112 100 122 73 145 117 117 80 78 98 68 101 80 100 149 110 102 127 99 80 113 114 102 148 3 136 98 99 133 7 36 136 145 127 21 115 104 62 99 73 22 98 121 71 142 62 128 73 105 59 118 139 47 77 105 100 47 98 98 100 121 124 77 112 68 80 99 99 1 0 107 121 73 62 1 125 115 68 107 5 56 130 98 143 145 21 127 138 80 17 125 147 128 47 104 80 99 127 1 99 47 149 103 131 127 98 75 106 104 73 142 98 71 73 1 77 129 22 103 73 68 99 1 105 141 33 100 92 110 77 138 105 98 98 0 102 99 95 80 98 84 103 103 75 135 17 17 73 61 42 52 121 105 122 33 99 105 99 42 89 100 0 78 141 99 99 24 132 135 104 62 100 131 45 47 68 7 103 80 77 80 71 0 136 99 102 77 95 104 48 114 24 101 75 27 39 100 100 129 99 99 73 78 99 0 99 89 107 80 98 144 113 75 22
split_gain=215667 70680.4 9688.82 8748.77 5120.35 4897.08 4233.71 3898.03 3554.2 3008.64 3559.24 2674.14 2258.57 2148.27 2599.91 2027.66 1799.11 1798.05 1543.77 1733.78 1512.85 1783.15 1503.83 1367.92 1528.59 1355.17 1258.71 1245.98 1168.15 1069.58 979.824 965.733 1365.22 952.735 948.609 933.116 899.079 863.974 856.914 716.772 713.206 707.326 690.152 875.636 649.661 735.414 696.28 644.628 605.655 916.529 1631.8 651.772 597.616 515.104 507.723 505.884 498.833 497.93 491.627 1117.65 467.799 458.163 450.34 449.997 446.089 672.564 575.818 428.121 411.493 405.31 402.397 776.077 538.414 412.526 398.23 388.858 371.759 476.182 425.028 370.142 368.106 350.017 338.553 334.288 325.952 313.68 439.512 375.26 333.675 311.197 441.906 339.768 309.107 307.222 299.862 288.269 284.977 281.359 279.73 272.671 271.631 270.154 265.486 263.567 259.057 256.066 254.083 250.439 250.088 249.131 248.895 247.98 247.268 235.435 235.433 231.276 227.732 226.662 225.801 297.208 259.168 224.663 223.272 217.037 211.224 206.419 205.298 202.663 202.21 198.241 197.184 195.912 195.395 189.375 187.537 187.061 186.665 186.389 186.348 227.842 186.235 185.246 183.635 182.987 181.391 179.53 176.322 174.369 173.937 172.369 179.007 170.123 195.145 168.766 166.826 165.602 163.593 159.831 159.62 157.911 179.896 156.708 155.712 155.002 154.833 153.941 152.776 150.587 148.711 148.654 149.903 148.644 148.068 147.681 145.617 198.344 145.442 144.71 144.644 144.012 143.451 141.205 140.959 166.139 138.869 137.871 137.367 134.406 132.293 128.976 128.918 127.604 127.394 125.001 124.708 124.663 123.959 123.244 122.494 150.909 122.441 122.087 121.578 121.563 121.381 119.167 118.308 118.028 117.86 117.131 115.505 115.298 115.202 114.585 114.073 113.477 113.224 112.26 146.967 112.136 111.873 111.546 111.413 109.157 107.096 105.714 105.65 105.27 174.345 105.094 104.55 104.061 103.36 103.109 102.493 101.857 106.125 101.718 101.492 100.161 97.4488 97.3359 96.7034 106.72 95.8676 242.741 95.5194 129.793 94.8127 97.3375 94.7641 94.7238 94.4932 94.4727
threshold=0 1 -1.518451929092407 2 -1.7643113136291502 1.7667318582534792 -1.8921521306037901 0.50354242324829113 -0.67108142375946034 0.25897134840488439 3 -0.54395824670791615 1.1487221717834475 4 1.2354017496109011 5 6 -1.7729453444480894 -0.64243087172508229 7 -0.62299132347106922 -0.21237956732511518 0.63680189847946178 0.13014413416385653 -0.55527648329734791 1.8470361828804018 8 9 -0.85916346311569203 10 11 1.0000000180025095e-35 12 0.66003090143203746 0.77988567948341381 13 -0.3970597237348556 -0.12531007826328275 -0.42986437678337092 -0.66189876198768605 -0.1547628045082092 -3.2228388786315914 -0.92006981372833241 14 1.0573200583457949 -1.1891516447067259 -1.0120068192481992 15 16 17 18 -2.3937495946884151 19 -0.22975683212280271 0.21227194368839267 -0.27335394918918604 -1.319620609283447 -0.60836893320083607 367.50000000000006 20 0.71602755784988414 -0.80597996711730946 0.60749861598014843 0.57154458761215221 21 -1.0976792573928831 22 835.50000000000011 0.059946278110146529 23 24 0.58001428842544567 0.94904631376266491 0.48470664024353033 25 0.99904239177703869 0.062781458720564856 26 617.50000000000011 27 28 29 0.13881068676710132 30 -1.034912049770355 31 0.4305922538042069 32 0.29792045056819921 33 0.022662498988211158 1.2697155475616457 34 35 -0.58294567465782154 2.2752903699874882 36 37 38 1.2703273892402651 0.47847737371921545 0.016212177462875847 39 1.2161948680877688 40 41 1910.0000000000002 101.50000000000001 42 43 0.80911314487457286 0.6779412329196931 44 45 46 -0.59322568774223317 -0.40194867551326746 47 0.63854515552520763 48 49 0.60274037718772899 50 0.089263483881950392 0.38527058064937597 51 0.1974328085780144 -0.017288010567426678 52 53 0.011491793207824232 0.2795573770999909 0.089108377695083632 54 0.24438031017780307 55 1623.5000000000002 0.020051485858857635 56 236.00000000000003 57 0.36022475361824041 -0.86731612682342518 -0.54795280098915089 -0.91130048036575306 58 59 -1.9947944879531858 -0.15942178666591642 60 -1.0000000180025095e-35 61 62 63 64 65 -0.38250418007373804 66 -0.416864663362503 67 68 1882.0000000000002 69 0.95547461509704601 0.7954651713371278 70 -0.20713826268911359 71 0.39946480095386511 72 0.5109727978706361 -0.13257211446762082 73 74 75 -0.43496119976043696 165.00000000000003 76 77 78 79 2.0259889364242558 -0.25379718840122217 80 0.0077721045818179854 81 82 83 84 85 86 0.74559450149536144 1.1650359034538271 -0.62313482165336598 87 390.50000000000006 0.37558704614639288 1446.0000000000002 88 89 1.2500817179679873 90 91 0.70925602316856395 824.00000000000011 212.50000000000003 92 0.43257771432399755 -0.86327818036079396 0.23123259097337726 93 1.6797881126403811 0.45809774100780493 94 95 96 97 0.2452068775892258 98 99 100 101 102 -0.12176833301782607 1219.5000000000002 -1.311546206474304 103 104 0.58174371719360363 105 0.52304375171661388 106 -1.1144624948501585 107 108 109 0.61663749814033519 3.8163650035858159 -0.17354939877986905 295.00000000000006 574.50000000000011 110 111 509.50000000000006 112 617.50000000000011 113 0.56178197264671337 114 115 -0.19551526010036466 1.7089910507202151 116 117
decision_type=9 9 2 9 2 2 2 2 2 2 9 2 2 9 2 9 1 2 2 9 2 2 2 2 2 2 9 1 2 1 9 2 1 2 2 9 2 2 2 2 2 2 2 1 2 2 2 1 1 9 1 2 1 2 2 2 2 2 2 1 2 2 2 2 1 2 9 2 2 1 1 2 2 2 1 2 2 1 2 1 1 9 2 1 2 1 2 1 2 1 2 2 1 1 2 2 1 9 9 2 2 2 1 2 1 1 2 2 1 1 2 2 1 1 1 2 2 1 2 1 1 2 9 2 2 1 2 2 1 1 2 2 2 1 2 1 2 2 1 2 1 2 2 2 2 9 1 2 2 1 2 9 1 1 1 1 2 1 2 1 1 2 1 2 2 1 2 1 2 1 2 2 9 9 1 2 2 1 1 9 1 2 2 1 2 1 1 1 1 1 1 2 2 2 1 2 2 2 1 1 2 1 1 2 2 2 1 2 2 2 1 2 2 1 1 1 1 2 1 1 1 1 1 2 2 2 1 1 2 1 2 1 2 1 1 1 2 2 2 2 2 1 1 2 1 2 1 2 1 9 2 2 1 1
left_child=2 7 106 4 30 12 -6 9 40 10 56 20 13 14 25 34 36 111 19 -19 31 48 28 24 177 29 67 42 204 62 112 63 38 -7 -9 93 55 220 83 84 127 187 43 138 45 97 148 81 49 50 52 -50 92 -52 61 103 153 144 102 95 -61 131 82 151 66 -66 143 214 169 147 71 73 -72 107 135 89 252 118 -79 104 110 -15 168 129 -10 86 87 134 -87 90 149 -91 180 117 -29 133 -55 184 -18 124 217 223 -30 145 173 172 224 -56 113 208 125 -12 216 -92 176 202 -75 253 -78 120 201 154 174 -106 179 -36 -53 188 205 210 192 250 191 159 -26 157 -39 -43 -21 -140 155 -89 -142 -14 -38 222 -40 -32 -47 150 235 -8 -153 198 241 156 164 166 -94 160 242 -46 248 -115 -83 229 206 -77 182 170 -63 -110 -17 -37 -41 -176 -57 -11 -133 -70 240 -130 230 -184 190 213 -71 -34 -4 -102 -31 -103 -42 207 -69 -82 -16 -86 199 -2 -179 233 234 251 -20 -35 -44 -49 -100 -99 -33 -96 -104 -136 -25 231 227 -28 -219 -54 237 -128 -13 -84 -1 -157 -178 228 -3 -24 -5 -158 -220 -120 -68 236 -59 -27 -156 -67 -22 -73 243 -60 245 -150 -172 -248 249 -145 -48 -109 -51 -23
right_child=1 3 8 5 6 33 11 15 39 23 17 16 64 47 196 105 98 18 22 27 21 35 165 26 85 37 100 94 58 44 69 32 41 128 80 79 57 136 146 122 130 137 74 -45 161 46 54 193 51 76 53 126 219 96 70 114 -58 75 59 60 -62 68 -64 -65 65 239 115 194 99 186 72 121 -74 116 -76 167 77 78 -80 -81 195 140 101 -85 197 88 -88 141 -90 91 108 -93 158 -95 211 -97 -98 209 109 -101 189 132 212 -105 123 -107 -108 203 171 -111 -112 -113 -114 163 -116 -117 -118 -119 119 -121 -122 -123 -124 -125 -126 -127 221 -129 181 -131 -132 178 -134 -135 185 -137 -138 -139 139 -141 142 -143 -144 162 -146 -147 -148 -149 244 -151 -152 152 -154 -155 238 225 215 -159 -160 -161 -162 -163 -164 -165 -166 -167 -168 -169 -170 -171 246 -173 -174 -175 175 -177 226 200 -180 -181 -182 -183 183 -185 -186 -187 -188 -189 -190 -191 -192 -193 -194 -195 -196 -197 -198 -199 -200 -201 -202 -203 -204 -205 -206 -207 -208 -209 -210 -211 -212 -213 -214 -215 -216 -217 -218 218 232 -221 -222 -223 -224 -225 -226 -227 -228 -229 -230 -231 -232 -233 -234 -235 -236 -237 -238 -239 -240 -241 -242 -243 -244 -245 -246 -247 247 -249 -250 -251 -252 -253 -254 -255
leaf_value=-0.052515379901461774 -0.019928328107492732 -0.00082923972154065378 -0.061616864466855777 -0.019213725907468993 0.065248831984830516 -0.028948357328979185 0.04791972020646456 -0.027916307772604915 -0.037634909613124302 -0.014218984438900118 -0.047612503984887207 -0.0050220320817057056 0.003688209143778918 -0.032626825055671445 -0.030685569796292743 0.0011743431097539386 -0.010686550722552443 -0.02178478426953746 -0.0018725605101804405 0.0087626927325187842 -0.036400710035634859 0.034172922712376652 -0.04558182844039825 0.036974093644152946 0.0013363460157640144 -0.026504119020067086 0.067933786612509012 0.001548659179424438 0.056875651546083247 -0.00076451278816074496 -0.058524293614923471 -0.013826224383708247 0.054700779950612941 0.058229846387063348 0.018629239130715531 -0.012232778053709828 -0.0077799827603044127 0.035855205473771877 0.024233035105972283 -0.038181621235795229 -0.058055483131158533 -0.065228376273361907 0.017902154695177121 0.043676699711834799 -0.040668722225377499 0.011020298845504446 -0.0072402072588534346 -0.035451569047453162 0.05709264273838411 0.042273991285850195 0.043125483673048332 -0.029609237730106822 0.019615909228867918 -0.0204026438118723 -0.037481337056266315 -0.035476958152956456 -0.036880947749484985 0.026173076195702357 0.016672108495122021 0.057228980322115014 -0.0076085595769907243 -0.040055781685271685 -0.036950660975428068 -0.055986689610738848 0.029796005074948891 -0.02037695365404394 -0.036232238305440652 -0.036882933880677642 0.0090871648930597702 -0.00046135645032179435 -0.0015987725318965696 -0.025032932472114161 0.046508941741251204 0.0012244068753997843 0.049821704395148575 -0.034474329850819156 0.028027039013247594 0.042470804608791768 -0.021332235144979842 -0.043054419098851576 0.015759608616068437 0.0037753748290711097 -0.061548876193704839 0.047099157985220394 0.0070734944668301609 0.029533947896490154 0.055867165181778859 0.0022875574613643798 0.05707418517161697 -0.025287077507282256 -0.020982189002535515 0.046000133786512819 0.030025200531095884 -0.033827790761740348 0.046185931625581184 0.052729723954174315 0.044166219003760651 -0.035626123464186733 -0.028359925496848883 -0.035517485883060002 0.038468396209115754 0.0018335666310760194 0.043457714119037025 0.027568405631873297 -0.03071144747663769 -0.0454836112399917 0.052054497421883165 0.020197283002004098 -0.0055325429279475188 -0.017644561151994188 0.044282854624239032 -0.0017250791128056693 -0.034608093146286843 -0.050828718555991095 0.043144559085893715 -0.051781824038975972 -0.040969008625255217 -0.014738869468009917 -0.016958887286317441 0.038933145696612138 0.032278902976800208 0.012210345319461961 -0.045963542468736886 0.014495283361022319 -0.044121281919204461 0.043913143554165993 0.0087004617651252648 -0.068037166635863011 0.046836191614105273 -0.053899043907867462 -0.038807299645384125 -0.0011582198333890104 -0.026167101597684279 0.047458820288084846 0.033951404926918186 0.040672047101126506 0.0069613855693246712 0.012277374349514879 0.038250122456583921 -0.022416181994848194 0.00087230774354942039 0.053763179853461275 -0.050301030422491455 -0.0099395516338455 0.024397570010761736 -0.016099587421209035 -0.0088820691534384055 -0.027329066764075743 -0.0494105590741813 -0.019984246860183505 -0.014468477208245237 0.036190545024888117 -0.0070432609987368337 -0.03354832958378301 -0.058696728855525342 -0.017644841559205204 -0.009841128767823169 0.042155408944744066 -0.031027398006120713 0.039806329803591535 0.038649844149832087 -0.0066650914165474083 -0.0081085300882451205 0.026696339895302842 -0.041852489023403668 0.0116988173495223 0.041907703622567676 0.034839173936136801 -0.042665414140297453 -0.055837027727162744 -0.023628863968770467 -0.05265142658486071 -0.026363666556943124 -0.037283153119372164 -0.0019148681451668184 -0.038515296878629646 0.026623034067865127 -0.02533978743979412 -0.035801074943239836 -0.0086657407349364276 0.028535450761063268 -0.0051338759246281158 -0.017234104741106065 -0.049888995246811951 -0.023820924299907755 0.046193659374663534 -0.048956075014027635 0.019227734519040252 -0.040217991118830579 0.06078805842348424 0.046856058111378093 0.026219295513465114 -0.065565081627839236 -0.041868261870356076 0.018906614414027589 0.044643359142398913 -0.058237252742517516 -0.041637952540182814 0.048717249755173136 0.033334663256685687 0.053632928418510299 0.0057991241554659562 -0.062210348126594331 -0.0031631982276765862 -0.047854624182447229 0.03210669074098061 0.04181179981744141 -0.0023111236099778456 -0.05095281572788974 -0.015795207134969461 -0.054694057397093564 0.058514578710658294 0.012818353455243419 0.04659636163919488 -0.023231683809919423 -0.028911925676795795 0.028586979746936331 0.063310851960335132 0.058023529357893198 -0.033915962703550871 -0.049708106792271278 0.039274156473695962 0.022863953463602805 -0.018603466279142871 0.021343294057591437 -0.044080589140627201 -0.0082374111392303426 0.031513594119111143 -0.053456441606799222 0.017743079662369387 0.0082619357173869448 -0.029597803403514009 0.037676377368724957 0.013146562379695541 -0.014287597122007481 0.052808467240867338 -3.9768274427109088e-06 0.012303362925761207 -0.0036605543879267006 -0.051157527517621725 -0.0074099340561607774 -0.055698559782555238 0.049512175791326746 0.039140080357879525 0.045770269281317805 0.032741004246055284 0.024965604794449966 -0.024841919672799955 -0.050822328484142719 -0.039590797596974044 0.015461052909812164 -0.014257383168848305 0.016648508011792493 -0.0040698657180531107
leaf_weight=26.26936847633624 135.7555942053441 525.32472312333994 3738.7582447555324 399.20176053376053 1825.7866126013687 213.42920561495703 2392.4641581154283 363.24455421513994 348.04200419795234 538.12311135686468 241.84527873816842 340.18875125647173 382.23218395223375 1835.6210871887597 243.80751031124964 563.18395420117304 953.30313255621877 695.50461268916843 282.49188674351899 1500.486267184926 1423.3020019785472 753.5237728668435 230.06484970229212 767.49482148687821 166.90903875585354 210.1285008341074 5020.2810705224983 142.40307051804848 8493.0762520874996 650.38028111449967 1476.8995773025963 811.0954856343451 1369.1932326949318 1305.6169133212534 3637.5587028079608 696.87297848184244 287.68021483786288 1669.8337241337285 1234.4805717131239 1014.2649714083527 22107.319900363669 40.599740408884827 2719.3085187897086 872.96844576703734 642.84227867028676 662.51091520066257 270.50644313881639 370.42679544242856 897.30413350540039 1196.8719248753623 1049.8196321784053 118.44019126548665 518.63770102952549 305.49572408352105 106.4447381470236 57.430045322045771 793.06874247425003 449.67644384084269 2297.3101572411833 5521.8418381239171 139.76481781399343 481.56097790960484 1413.2969652943721 59.040926440124167 339.14167364381137 309.01178873589379 2578.8408569247695 161.84644383596606 1152.6130253236042 268.79472227361111 518.35462967354397 873.5319096485764 633.00544419582002 421.37656067591161 1555.5151287767803 803.58837216018583 706.88894988235552 1178.4310190318211 143.47182982965023 727.29522993288992 201.62018789016292 1114.6469572705682 89.169658887709375 83.14410396956373 738.64756011497229 596.35441947662912 3553.6789257159107 88.158945310948184 5595.8045506055932 116.69599648618896 856.31756663147826 274.69306290225359 165.39520656353852 132.79165489942534 1614.9785907230107 904.11513255466707 115.34991504982463 932.56254921856089 421.93396327812297 341.64243889669888 809.42772584187333 896.73584153875709 817.05340587807586 463.93708824028727 172.99870982795255 352.78587677906035 854.55169942264911 3087.9572518111963 105.35039541914011 709.12650638293417 677.69777097625774 357.55972515812027 287.20807685154432 36.462620689242613 935.05565155588556 1755.7163174728776 249.47396093627322 164.7016630696744 829.51129671838135 289.73894442686287 286.30466832233651 302.38489207731618 3014.8113128875266 524.58863550995011 137.73655340001278 443.80651256704004 371.56987062233384 22133.373747192672 125.923937277199 239.53619695521775 606.90427072238526 623.01631711944356 228.66433449654141 778.94323700318637 5154.5046266794379 1428.2038775094552 327.64013256895123 595.67592899978627 88.182940893573686 541.62014803834609 116.23838455548685 2998.4380543741863 329.14954941924952 297.97320194222266 844.89403731007405 651.04401716208667 234.35827600408811 257.81427272409201 50.476505943923257 252.95651520235697 244.71484475129182 1914.4650826669531 137.04806593665853 93.43593771813903 43.846296045943745 445.47167036266183 2820.3522498347011 630.88080815842841 76.824654875381384 1212.7093270546757 915.15769670560258 223.83644730329979 487.92261100908217 236.5598173153121 99.21321720193373 114.87901626905659 454.4583017003024 40.3227436299494 421.48440714404569 218.12502540464629 550.43448735219135 370.26197087395121 409.21807279222412 528.08038515457883 419.12366814885172 319.75094441830879 792.94141929817852 34.724119018064812 193.49620175530436 1069.5457150586881 47.008608763309894 130.32926801790018 534.12235217468697 296.97793986822944 304.22378971989383 2264.0845238143229 97.511011511291144 144.67055882282148 390.91270676482236 521.48200437217019 77.991215184883913 371.8706107337639 3163.2159300185012 2371.5357278097363 70.446394073951524 1987.2148017853324 1114.3642270607816 69.624178446945734 117.13479573582299 125.31427358731162 78.233216867316514 915.88600569842674 200.40967537430697 331.47511281908373 93.634956492271158 255.82934137503617 279.57964241225272 204.22469142291811 858.09254150677589 599.34454757999629 94.598052954708692 2188.4250401021854 184.22031093214173 1058.0636641695455 40.590335041517392 583.85140524433518 168.60447553594713 7133.731425514794 837.69202013779432 52.817057598018437 126.23200487028225 240.99145397904795 362.56343821225164 387.90360211880761 284.58264460391365 317.28586743181222 123.02006971673109 92.374930728168692 90.379151508794166 37.310958663467318 295.04040409158915 369.35542567014636 481.68698607408442 167.50259396270849 290.04316951707006 99.080102478154004 328.177805642772 136.47427545487881 642.66986309672939 222.93137008487247 157.77936272171792 148.32588345896511 135.72933893400477 291.87694792530965 460.2023636722115 346.62106427771505 140.05391014798079 118.16610781804775 254.24693997565191 280.77568664247519 1346.6428978317417 100.94122543360572 206.72170526057016 88.415163873505662
leaf_count=47992 44928 145266 217166 110957 47819 143432 238595 239006 334554 174145 238846 122494 87116 1119856 95558 174903 140852 286926 95605 43545 50909 152887 183846 84907 92397 105045 47829 23603 399179 218659 208812 64295 8446 69925 103697 298983 104946 191478 237901 580224 477822 23784 46535 12492 414513 188449 113089 127852 8830 142970 9851 43669 17698 26777 67339 22376 382479 102860 82210 63983 38348 392866 565108 95681 12583 25215 219007 117556 263861 25779 162727 126816 7934 101391 20663 516318 104122 8725 61067 294171 32746 498544 50452 1813 190961 80708 188549 27587 40251 48132 157723 2211 4464 47358 15795 69894 3015 565295 120663 150643 81120 110866 55112 69778 100717 166683 47774 607270 59577 246636 73847 143303 98023 26988 100737 741028 168625 56946 76380 10466 12567 101231 1577286 100456 150830 6884 13007 286847 12744 29903 382384 255796 80660 17737 86217 28472 95543 94790 11993 12062 41303 20776 106437 103445 174786 280270 49502 83639 22625 85713 106737 214374 24551 24427 45436 52046 571603 11012 4500 37693 28143 75314 193019 3408 83180 43095 49846 8072 181565 108875 243483 47589 279875 353211 131453 243753 133064 12911 83732 377081 1391 25507 195215 117545 150934 25604 16414 3528 21736 14449 7522 60468 95685 857571 25934 21936 95566 47794 9176 17095 4350 61695 22840 135061 95382 35103 2947 63828 387952 225976 11911 7798 23613 11575 10690 142355 33458 175177 25573 4105 51155 4554 87430 100964 47852 165435 23804 18474 87234 11715 50340 89069 38418 12442 20062 9921 153858 35029 34097 122205 51002 29938 2838 41230 45322 45249 25257 59040 105008 165200 264297 33714 30682 29543
internal_value=0 0.0194954 -0.0577118 -0.00210291 0.00965662 -0.0121896 0.0132327 0.0422763 -0.059727 0.0447821 0.0379577 0.0106392 -0.0145112 -0.0111631 -0.00604403 0.0199844 -0.00289451 0.0398859 0.0408664 0.0320545 0.0172493 0.0104535 0.0466412 0.051796 0.0461746 -0.00365714 0.0596464 0.0347167 0.0478335 -0.00615921 -0.0324217 0.028334 0.0174927 0.0410067 0.0271839 -0.0103608 0.00481773 0.0210452 0.000908542 -0.0340376 -0.0626458 0.0382964 0.0282098 0.0141542 -0.00228102 -0.000870254 0.00198118 -0.0242939 0.0173346 0.0140607 0.000882939 0.0371061 -0.016657 0.0300107 -0.000444367 0.018016 -0.0197734 -0.00437906 0.0488938 0.0442451 0.0556284 -0.00748131 -0.0200118 0.0400043 -0.0322466 -0.00872047 -0.0353858 0.0217036 -0.0144696 -0.0466022 0.0058226 0.00234982 0.0248503 0.0107468 0.0341822 -0.00991538 0.0227279 0.017878 0.035546 -0.0217046 0.0301037 -0.019179 -0.0139066 -0.020664 -0.00931643 0.0477763 0.0450839 0.0418171 0.0544218 -0.0045962 -0.00845044 0.0247452 -0.026228 0.0160694 0.0514127 0.0343844 -0.00270491 -0.0182414 -0.0266766 -0.0062933 0.0622561 -0.00369425 0.0548661 0.00480195 -0.0137408 -0.0197912 0.0421979 0.0154105 -0.0209247 -0.0341147 0.0246402 -0.0202395 -0.00636833 -0.0119587 0.030602 -0.0415641 -0.0144664 0.0228113 0.01057 0.00561197 0.001222 -0.0155974 -0.040033 0.00328421 -0.00206252 0.0213786 0.0125727 -0.0667091 0.0492207 -0.0255836 -0.058522 0.00460747 0.00361386 0.0314393 0.0380762 0.029769 0.0311158 0.00733186 0.00205618 -0.0139219 -0.0151176 0.0522929 -0.0369457 -0.0175356 0.0162243 -0.00299996 0.0189494 -0.053888 0.0244894 0.00611418 0.0119999 0.0412796 0.0331408 0.00857389 -0.0205194 -0.0134532 -0.0111304 0.0259563 0.0106612 0.0288679 0.0252237 -0.0318866 -0.0238099 0.0163427 4.60432e-05 -0.0221863 0.022997 -0.0311625 -0.0242633 -0.029114 -0.0245962 -0.0422144 -0.0106736 -0.0234363 -0.0294045 -0.0177539 0.0185534 -0.00665907 -0.00936784 0.000544422 -0.0317163 0.0204044 -0.0191784 -0.0289027 -0.00392267 0.0387996 -0.0133707 0.0513108 -0.0595913 0.0472138 0.00433451 0.00898183 -0.0589955 -0.0383195 -0.0199639 0.0419828 -0.0532914 0.00287751 0.0189802 0.00563806 0.029356 -0.0034263 -0.0358547 0.0170097 -0.0133196 0.0539498 0.0201312 -0.0236738 -0.0435055 -0.0276867 -0.0180948 0.0532797 0.0378205 0.036105 0.0339499 -0.0147256 0.00281058 0.0637882 0.0613261 0.0146682 -0.0214979 0.0207286 0.0092335 -0.0266304 0.0151017 -0.0286414 0.021941 -0.00332717 -0.00855438 -0.0367452 -0.00753707 -0.0121289 0.0505951 -0.011901 -0.0340136 0.0193861 0.0151289 -0.0112237 -0.0071756 -0.0332767 -0.0335077 -0.0294841 0.0207145 0.0192049 0.0348982 0.0222984 -0.0153899 0.00217279 -0.0330069 -0.0251804 0.0116637 0.0191067 0.0384999 0.0301569
internal_weight=0 175968 59230.2 90333.5 41708.5 48625 38443.6 85634.9 58064.7 76998.6 39026.8 36617.8 46593.9 39194.6 28217.3 8636.33 12016.1 37762.1 37162.7 14712.5 24601.7 15251.3 22450.2 37971.8 22127.1 26859.1 15844.7 14017 22067.9 24388.8 3264.91 9350.37 4847.35 2031.13 7311.14 3789.27 9073.61 2470.31 2697.21 5924.26 52140.5 2150.14 10071.2 3003.26 19054.3 18187.6 15623.1 10977.4 11462.1 9833.76 3912.43 1628.31 2441.76 1470.67 14103.3 3726.18 1264.71 5347.43 21691.8 12197.4 5661.61 6643.54 5334.47 4503.02 7399.25 871.085 6528.16 1040.38 4209.88 2101.02 7459.79 6308.43 1151.36 4297.67 7067.95 4214.86 5921.33 4517.74 1321.9 2649.84 6947.9 8031.19 3921.17 1228.37 1156.31 21476 15283.8 11730.2 6192.16 3370.95 2979.56 391.389 1870.31 1139.43 3945.81 6535.84 420.846 2564.5 2942.46 2701.54 14804.3 1974.34 9494.35 1817.73 1922.54 1325.19 1165.4 3626.82 1604.95 1989.15 4759.06 599.405 1163.89 1129.34 1908.45 4825.01 670.851 1006.64 3195.83 2488.94 2199.2 2010.76 4767.95 697.587 2359.9 4081.37 731.002 26263 1817.7 1145.23 25877.4 2433.66 1497.27 5631.73 8643.56 5512.43 1997.47 636.276 2130.29 629.803 6195.56 3086.6 445.388 1703.15 1132.57 1353.8 1468.84 1734.71 1519.81 1374.61 1121.65 4443.98 2051.51 471.641 1708.37 5750.18 4987.42 4084.23 242.22 4852.78 3640.07 866.679 1320.92 273.022 1213.86 382.255 3453.35 843.911 1946.83 1508.34 1290.22 475.612 972.402 1224.95 1753.14 738.875 973.392 651.08 816.513 2222.16 1628.09 256.253 1525.34 831.1 1032.6 8476.65 366.306 1513.86 4129.67 1330.91 728.371 1268.61 25270.5 2946.19 232.293 2188.83 1358.17 808.272 378.205 261.07 112.957 1912.9 3069.29 3520.37 376.127 1561.45 2998.89 574.651 1280.03 1531.91 905.694 3803.4 1001.27 6212.57 808.085 3773.56 876.683 13473.4 8453.11 571.455 472.835 612.561 702.752 477.073 310.852 762.758 915.961 708.079 615.704 267.376 694.242 3189.71 1319.38 997.014 2868.88 876.934 777.854 346.603 686.516 531.943 1581.08 1021.86 2724.92 2589.19 857.3 397.098 808.655 258.22 832.996 578.749 1617.15 3188.9 1403.59 841.939
internal_count=31735515 27004232 4731283 21794366 7408047 14386319 6690948 5209866 4587665 4110289 2723566 6643129 14099608 12282880 8363801 1099577 3344895 2245461 1863312 573689 3298234 2199160 1289623 1386723 765070 8172677 621653 286763 1050967 7694427 717099 1099074 525873 286711 478116 1434272 2448792 478250 395325 3106025 1481640 130548 239567 80092 6070287 5580460 4412074 3919079 764888 694828 173712 70060 134069 39643 4110429 839953 478105 1608839 859980 382076 102331 2488850 1624140 573201 1816728 160003 1656725 239087 1771936 334644 1621579 1450918 170661 1113400 159475 1329107 521116 347464 69792 1147538 239110 2869828 1059032 107922 573309 573664 452705 264156 120959 804717 754374 50343 112266 286734 47196 279745 29792 1168386 896103 942415 382566 403410 477904 559972 853367 621461 143618 843384 295285 755251 184428 382149 382455 188119 279981 1002937 270016 239376 277672 173550 163084 337518 2532716 201173 791772 110581 61230 525749 143279 106109 955891 716914 251994 209851 215793 138812 287021 118574 67600 24055 1749972 48363 147740 653788 279732 490194 287403 292451 301645 459089 373376 477520 238925 95626 236287 1602232 1384751 110340 8964 192114 154421 489827 566672 30396 581724 238656 99328 524390 655622 829521 720646 107166 454778 652194 955430 375206 179244 191406 339528 640942 103302 38251 474057 312760 377115 123396 42193 11974 238902 95569 226181 171334 573507 1049251 143490 54682 191124 238755 71199 62023 17261 150517 261909 776045 190987 105028 49482 191680 508615 791271 76206 23593 78725 97792 95597 803027 284432 286997 239168 21803 191229 17561 209924 151416 95844 217481 156868 250974 232500 195561 161297 660672 63991 88822 239069 266639 256718 140074 79533 147420 101911 156754 126278 123440 113196 67874 327780 84297 373653 268645 377386 640984 173652 182430
cat_boundaries=0 241 375 569 653 785 869 870 971 1072 1073 1074 1187 1188 1313 1314 1315 1316 1421 1422 1423 1424 1425 1546 1547 1548 1549 1550 1551 1552 1687 1688 1689 1690 1691 1692 1693 1694 1826 1920 1921 1922 1923 1924 1925 1926 1927 1928 1929 1930 1931 2082 2083 2084 2085 2086 2087 2088 2089 2197 2198 2199 2293 2294 2295 2296 2297 2298 2299 2300 2301 2302 2303 2304 2420 2499 2500 2501 2502 2564 2565 2566 2567 2568 2569 2570 2571 2572 2573 2574 2575 2576 2577 2578 2579 2580 2581 2582 2583 2584 2585 2586 2587 2588 2589 2590 2591 2592 2593 2594 2595 2596 2597 2598 2599 2600 2710 2711 2712
cat_threshold=0 0 0 0 0 0 0 0 0 0 0 0 65536 0 0 524288 0 64 0 0 0 0 0 0 4194304 1 0 0 8 0 1074790400 128 0 0 4100 0 0 0 0 0 524288 0 67108864 0 0 0 0 0 0 0 0 0 0 0 0 0 0 0 0 1 0 0 65536 0 262146 0 0 0 0 0 1 0 0 0 1048576 0 262144 0 0 0 0 0 0 0 2048 0 0 32768 0 262144 1 0 0 0 0 0 0 0 0 0 0 0 0 0 0 0 0 0 16777216 0 1073741824 0 64 0 0 0 0 0 16777216 0 0 65536 0 0 0 0 0 0 0 0 0 0 0 0 0 0 0 0 0 0 0 0 0 0 0 0 0 0 0 0 1 0 0 0 0 1073741824 0 0 0 0 0 0 0 0 0 0 0 0 0 0 0 0 0 0 0 0 0 0 0 0 0 0 0 0 0 0 0 0 0 0 0 0 0 0 0 0 0 0 0 0 0 0 0 0 0 0 0 0 0 0 0 0 0 0 0 0 0 0 0 0 0 0 0 0 0 0 0 0 0 0 0 0 0 0 0 0 0 0 0 0 1 1 0 0 0 0 0 0 0 0 0 0 0 0 0 0 0 0 0 0 0 1024 0 0 0 0 0 0 0 0 0 0 0 0 0 0 0 0 0 0 0 0 0 0 0 0 0 262144 0 0 4096 0 0 0 0 0 0 0 0 0 4096 0 0 0 1073741824 0 0 0 65536 0 0 0 0 0 0 0 0 0 65536 0 0 1048576 256 0 16777216 0 0 0 65536 0 0 0 0 0 4096 0 0 0 0 0 0 1 0 0 0 0 0 256 0 0 4096 0 0 0 0 0 1048577 0 0 0 0 0 0 0 0 2147487744 0 0 0 0 0 0 0 64 16777216 0 0 0 16 0 0 128 0 0 0 0 0 0 0 0 0 0 0 16777216 0 0 0 0 0 0 0 0 67108864 16 4194304 0 0 0 0 0 0 0 65536 0 0 0 0 0 25182208 0 0 0 0 0 4194304 0 0 16777216 0 0 1073741824 0 0 0 4 0 256 0 0 0 0 0 0 16777216 0 1024 268435456 0 16 0 0 0 0 16 0 0 0 0 0 0 0 0 0 0 4 1024 0 0 16 0 0 0 0 0 0 0 0 0 0 2097152 0 0 67108864 0 0 0 0 65536 0 0 0 0 0 0 0 0 0 0 0 4194304 0 0 0 0 0 0 0 0 0 0 0 0 0 0 0 0 0 0 0 0 0 0 0 0 0 0 0 0 0 0 0 0 0 0 0 0 0 0 0 0 0 0 0 0 0 0 0 0 0 0 0 0 0 0 0 0 0 0 0 0 0 0 0 0 0 0 0 0 16777216 0 0 0 0 0 0 0 0 0 0 0 0 0 0 0 0 0 0 0 0 0 0 0 0 0 0 0 0 0 0 0 0 0 0 0 0 0 0 0 0 0 0 0 0 0 0 262144 0 0 4096 0 0 0 0 0 0 0 0 0 4096 0 0 0 0 0 0 0 0 0 0 0 0 0 0 0 0 0 0 0 0 0 0 0 16777216 0 0 0 0 0 33554432 0 0 0 0 0 0 0 0 4 1048576 0 0 4096 0 0 0 0 16384 2147483648 0 262144 0 0 0 0 0 0 0 0 0 0 64 0 0 1 0 0 16 0 0 268435712 0 0 0 1 0 65536 0 0 0 256 0 0 0 0 268435456 32768 0 0 0 0 0 0 0 0 256 0 0 0 1 0 16777216 0 0 0 0 0 0 0 0 0 64 0 0 256 0 0 0 0 0 0 0 0 0 0 0 16777216 0 0 0 0 0 0 4 0 0 0 0 0 0 0 0 0 0 0 0 0 0 0 0 0 0 0 0 0 256 1 0 0 0 0 0 0 0 0 0 0 0 0 0 0 0 0 0 0 0 0 0 0 0 0 0 0 0 0 0 0 0 0 0 0 0 0 0 0 0 0 0 0 0 0 0 0 0 0 0 0 0 0 0 0 0 0 0 0 0 0 0 0 0 0 0 0 0 0 0 0 0 0 0 0 0 0 65536 0 0 0 256 0 16777216 1 0 0 0 0 0 0 0 0 0 0 0 0 0 0 0 0 0 0 0 0 0 0 0 0 0 0 0 0 0 0 0 0 0 0 0 0 0 0 0 0 0 0 0 0 0 0 0 0 0 0 0 0 0 0 0 0 0 0 0 0 0 0 0 0 0 0 0 0 0 0 0 0 0 0 0 0 0 0 0 0 0 256 0 0 0 0 0 65536 0 0 0 0 0 0 0 0 0 0 0 0 1 0 0 0 0 0 0 0 0 0 0 0 0 0 0 0 0 0 0 0 0 0 0 0 0 0 0 0 0 0 0 0 0 0 0 0 0 0 0 0 0 0 0 0 0 0 0 0 0 0 0 0 0 0 0 0 0 0 0 0 0 0 0 0 0 0 0 0 0 0 0 0 0 0 0 0 0 0 0 0 0 1048576 256 0 0 0 0 0 65536 0 0 0 0 0 0 0 0 0 0 0 0 1 1 2 0 0 0 0 0 0 0 0 0 0 0 0 0 0 0 0 0 0 0 0 0 0 0 0 0 0 0 0 16 0 0 0 0 0 0 0 0 65536 0 0 0 0 0 16384 0 0 0 0 0 0 0 0 0 0 0 0 0 0 0 0 0 0 0 0 0 0 0 0 0 0 0 268435456 0 16 0 0 0 0 0 0 0 0 0 0 0 0 0 0 0 0 0 0 0 0 0 0 0 0 0 0 0 0 0 0 0 0 0 0 0 0 0 0 65536 1 0 0 0 16 0 0 128 0 0 0 0 0 0 0 0 0 0 0 0 0 0 0 0 0 0 0 0 0 0 0 0 0 0 0 0 0 0 0 0 0 0 0 0 8388608 0 0 0 0 0 0 0 0 0 0 0 0 0 0 0 0 0 0 0 0 0 0 0 0 0 0 0 0 0 0 0 0 0 0 0 0 0 0 0 0 0 0 0 0 0 0 1024 0 0 16 0 0 0 0 0 0 0 0 0 0 0 0 0 0 0 0 0 0 0 0 0 0 0 0 0 0 0 0 0 0 4194304 1 1 1 0 0 0 0 0 0 0 0 0 0 0 0 0 0 0 0 0 0 0 0 0 0 0 0 0 0 0 0 0 0 0 0 0 0 0 0 0 0 0 0 0 0 0 0 0 0 0 0 0 0 0 0 0 0 0 0 0 0 0 4 0 0 0 0 0 0 0 0 0 0 0 0 0 0 0 0 0 0 0 0 0 0 0 0 0 0 0 0 0 4 0 0 0 16 0 0 0 0 0 0 0 0 0 0 2097152 1 1 1 1 0 0 0 0 0 0 0 0 0 0 0 268435456 0 0 0 1048576 0 0 0 0 0 0 0 0 0 0 0 0 0 0 0 256 0 0 0 0 0 32832 0 0 0 0 64 0 0 0 256 0 0 0 0 0 65536 0 0 0 0 0 0 0 0 0 64 0 0 0 0 0 0 0 0 0 0 0 0 0 0 0 0 0 0 0 0 0 0 0 268435456 0 0 0 0 0 0 0 0 0 0 0 0 0 0 0 0 16 0 0 0 0 0 4 0 0 0 0 0 0 0 0 0 0 1024 1 1 1 1 1 1 0 0 0 0 0 0 256 0 0 0 0 268435456 0 0 0 0 0 0 0 0 0 0 0 0 0 1048576 0 0 0 0 0 256 0 0 0 0 0 0 0 0 1024 0 0 0 0 0 65536 0 0 0 0 0 67108864 0 4194304 0 0 0 0 0 0 0 64 0 0 0 0 0 16400 0 0 0 0 0 0 0 268435456 67108864 8 0 0 0 0 0 4096 0 0 0 0 0 0 0 0 0 0 0 0 0 0 0 0 0 0 0 0 0 0 0 0 0 0 0 32768 0 0 0 0 0 0 0 0 0 0 0 0 1 0 0 0 0 1073741824 0 0 0 1 1 1 1 1 1 1 1 0 0 0 0 0 0 0 0 0 0 0 0 0 0 0 0 0 0 0 0 0 0 0 16384 2147483648 0 0 0 0 0 0 0 0 0 0 0 0 0 0 0 1 0 0 0 0 0 256 0 0 0 0 0 0 0 0 0 0 0 0 0 0 0 0 0 0 0 0 0 0 0 0 0 0 0 0 0 0 0 0 0 0 0 0 0 0 0 0 64 0 0 0 0 0 0 0 0 0 0 0 0 0 0 0 0 0 0 0 0 0 0 0 0 0 0 0 0 0 0 0 0 0 0 0 0 0 0 0 0 0 0 0 256 0 0 0 0 0 0 128 0 0 0 0 0 0 0 0 0 0 0 0 0 0 0 0 0 0 0 0 67108864 0 0 0 0 0 0 0 0 0 0 0 0 0 0 0 0 0 0 0 0 0 0 0 0 16777216 0 0 0 0 0 0 4 0 0 0 0 0 0 0 0 0 0 0 0 0 0 0 0 0 0 0 0 0 0 0 0 0 0 0 0 0 0 0 0 0 16 1 1 1 1 2 1 1 1 1 1 1 0 0 0 0 0 0 0 0 0 0 0 0 0 0 0 0 0 0 0 0 0 0 0 0 0 0 0 0 0 0 0 0 0 0 0 0 0 0 0 0 0 0 0 0 0 0 0 0 0 0 0 0 0 0 0 0 0 0 0 0 0 0 65536 0 0 0 0 0 0 0 0 0 0 0 0 0 0 0 0 0 0 0 0 0 0 0 0 0 0 0 0 0 0 0 0 0 0 0 0 0 0 0 0 0 0 0 0 0 0 0 0 0 0 0 0 0 0 0 16777216 0 0 0 0 0 0 0 0 0 0 0 0 0 0 0 0 0 0 0 0 0 0 0 0 0 0 0 0 0 0 0 1 1 1 1 1 1 1 1 0 0 0 0 0 0 0 0 0 0 0 0 0 0 0 0 0 0 0 0 0 0 0 0 0 0 0 0 0 0 0 0 0 0 0 0 0 0 0 0 0 0 0 8388608 0 0 0 0 0 0 0 0 0 0 0 0 0 0 0 0 0 0 0 0 0 0 0 0 16777216 0 1024 0 0 0 0 0 0 0 0 0 0 0 0 0 0 0 0 0 0 0 0 0 0 0 0 0 0 0 0 0 0 0 0 0 0 0 0 67108864 1 1 0 0 0 0 0 0 0 0 0 0 0 0 0 0 0 0 0 0 16777216 0 0 0 0 0 0 0 0 0 0 0 0 0 0 0 0 0 0 0 0 0 0 0 0 0 0 0 0 0 0 0 0 0 0 0 0 1073741824 0 0 0 0 0 0 0 0 0 0 0 0 16777216 0 0 0 0 0 0 0 0 0 16 0 0 0 0 0 0 0 0 0 0 0 0 0 0 16 1 1 1 1 1 1 1 1 1 1 1 0 0 0 0 0 0 0 0 0 0 0 0 0 0 0 0 0 0 0 0 0 0 0 0 0 0 0 0 0 0 0 0 0 0 0 0 0 0 0 0 0 0 0 0 0 0 0 0 0 4096 0 0 0 0 0 0 0 0 0 0 0 0 0 0 0 0 0 0 0 0 0 0 0 0 0 0 0 0 0 0 1048576 0 0 0 0 0 0 0 0 0 0 0 0 0 0 0 0 0 0 0 0 0 0 0 0 0 0 0 0 0 0 0 0 0 0 1 0 0 0 0 0 0 0 0 0 0 0 0 0 0 0 0 0 0 0 0 0 0 0 0 0 0 0 0 0 0 0 0 0 0 0 0 0 0 0 0 0 0 0 0 0 0 0 0 0 0 0 0 0 0 0 0 0 0 0 0 0 256 0 0 0 0 0 0 16777216 0 0 0 0 0 0 0 0 0 16 2 1 1 0 0 0 0 0 0 0 0 0 0 0 0 0 0 0 1048576 0 0 0 0 0 0 0 0 0 0 0 0 0 0 0 0 0 0 0 0 0 0 0 0 1 0 0 0 0 0 0 0 0 0 1 0 0 0 0 0 0 0 0 0 0 268435456 1 1 1 1 1 1 1 1 1 1 1 2 1 1 1 1 1 1 1 1 1 1 1 2 1 1 1 1 1 1 1 1 1 2 1 1 0 0 0 0 0 0 0 0 0 0 0 0 0 0 0 0 0 0 0 0 0 0 0 0 0 0 0 0 0 0 0 0 0 0 0 0 0 32832 0 0 0 0 64 0 0 0 256 0 0 0 0 0 0 0 0 0 0 0 0 0 0 0 0 0 0 0 0 0 0 0 0 0 0 0 0 0 0 0 0 0 0 0 0 0 0 0 0 0 0 0 0 0 0 0 0 0 0 0 0 0 0 0 0 0 0 0 0 0 0 4 1 1
is_linear=0
shrinkage=0.035


Tree=2
num_leaves=255
num_cat=137
split_feature=98 98 106 98 123 103 130 98 83 111 111 111 100 78 103 143 17 111 101 7 98 89 123 47 122 20 121 98 89 103 103 98 98 143 98 98 68 124 107 0 124 83 127 113 56 44 83 126 124 62 121 108 98 106 120 104 63 109 98 139 100 17 0 109 108 24 121 140 0 95 6 47 124 68 101 0 114 47 117 6 140 113 7 98 10 144 80 103 118 127 102 73 100 148 10 111 107 110 106 80 119 114 132 149 127 22 113 0 104 120 56 143 101 73 123 136 108 79 101 130 56 98 14 110 79 96 104 139 63 80 98 98 106 10 110 77 66 22 47 131 62 102 101 22 122 0 107 80 22 30 22 77 24 118 122 75 132 0 102 113 100 101 5 98 62 98 24 100 98 127 30 79 68 107 17 80 140 19 10 102 101 83 49 103 68 75 89 123 138 100 80 68 102 118 101 75 62 17 100 104 103 137 118 7 6 14 49 68 108 68 114 108 20 14 107 98 130 75 71 100 79 30 56 22 48 48 62 44 100 63 45 10 104 79 80 36 100 89 100 44 45 0 0 101 86 39 24 19 79 82 132 80 103 78
split_gain=72497.8 22360.4 5778.61 3407.13 2904.73 2455.66 2388.91 2229.15 1833.77 1433.97 1313.95 1396.46 1295.09 1268.68 1219.7 1131.14 997.302 1806.7 1327.46 1006.61 995.91 959.849 934.963 916.401 914.486 1175.38 1949.49 1093.73 1015.7 2728.6 1827.77 879.251 854.899 839.562 804.709 771.47 1155.36 767.665 685.308 673.451 964.294 665.748 635.742 622.567 622.431 671.486 605.148 960.905 733.759 582.692 553.764 553.693 565.906 548.184 542.374 520.171 722.574 511.766 561.424 504.625 495.57 491.18 481.006 494.591 462.231 460.325 797.927 765.217 515.824 456.495 454.029 450.319 446.532 428.896 838.099 423.324 630.324 421.658 419.583 416.559 1103.36 478.904 509.728 387.788 382.571 366.085 360.955 359.918 359.83 358.166 353.917 351.943 342.793 342.581 338.964 335.282 332.929 317.024 315.47 397.837 313.686 311.4 306.624 345.091 306.571 305.42 305.223 294.758 507.288 290.817 290.924 289.49 286.821 286.261 284.62 274.591 274.167 266.939 341.314 264.031 253.378 250.282 247.041 240.767 238.153 236.811 236.071 267.112 235.577 235.229 234.871 233.059 232.042 227.88 226.794 226.555 224.906 224.429 218.454 216.992 214.924 300.948 212.678 211.92 211.906 210.643 207.611 296.059 205.259 203.979 199.318 197.503 197.2 195.129 194.267 193.788 193.521 190.581 251.397 189.097 185.997 185.831 184.858 183.336 199.76 180.619 180.453 177.336 174.489 172.896 172.403 170.191 169.774 166.037 165.913 166.733 416.465 164.812 164.579 203.323 163.671 163.616 160.97 160.469 160.466 160.447 158.73 157.363 157.074 178.681 171.855 156.154 155.441 153.477 152.179 152.015 150.896 150.161 149.925 149.92 147.48 147.332 147.128 163.209 146.447 145.998 145.576 144.353 143.968 143.018 241.018 205.495 142.338 142.012 142.003 140.094 139.995 162.224 186.396 139.63 139.358 138.597 138.039 137.009 141.709 135.971 135.335 135.255 222.635 135.052 134.641 134.316 133.643 133.252 133.223 131.286 137.444 131.266 129.276 129.054 171.097 124.365 124.258 124.889 123.564 123.544 123.54 122.385 119.872 125.812 194.674 119.841 119.312 117.953
threshold=0 1 -1.3924038410186765 2 0.53079664707183849 -0.51370859146118153 0.3484539687633515 3 4 1.4564765095710757 -1.163287818431854 -1.2002025842666624 -1.3834317326545713 5 0.23047091811895373 0.54428824782371532 6 0.29780410230159765 -0.11052218079566954 7 8 9 0.25778943300247198 10 0.39675192534923559 11 -1.3870983123779295 12 13 1.4391106367111208 1.6263164281845095 14 15 1.1124671101570132 16 17 18 -1.4002631306648252 -0.43444718420505518 19 -0.39536909759044642 20 0.44965574145317083 2.7099430561065678 21 22 23 -0.40747684240341181 -0.44781252741813654 24 0.6984621286392213 0.40826936066150671 25 1.8897134065628054 -0.92934533953666676 -0.18389420956373212 26 0.45526272058486944 27 -0.51718592643737782 0.97813978791236889 28 29 0.62569460272789013 -0.38557714223861689 30 -1.5514175891876218 -0.34035527706146235 31 32 33 34 0.73425894975662243 35 -2.1741392612457271 36 -0.3137677907943725 37 -0.5186207890510558 38 1.4571453928947451 -0.46429060399532313 39 40 41 1.0353169441223147 42 3.0124955177307133 -0.71221914887428273 0.44965574145317083 3.7394112348556523 43 3.6194665431976323 0.89982038736343395 44 -0.14418157935142514 1.1269016861915591 -1.0881969332695005 -0.44584912061691279 45 0.67268770933151256 0.72024706006050121 -0.64660099148750294 -1.1215788722038267 0.025465934537351135 46 0.019846808165311817 47 0.96201515197753917 0.42739656567573553 48 0.39375001192092901 3.4917480945587163 49 0.24488972127437594 -0.08104104176163672 1.4765672683715823 50 -2.3719106912612911 -0.062874255701899515 51 52 53 1.392460882663727 54 55 -2.0644210577011104 -1.0986269712448118 56 57 58 59 1.303567707538605 60 0.49058064818382269 61 62 63 64 -0.64577326178550709 65 -0.42863941192626948 -1.5730621814727781 66 1.6563473343849184 67 -1.6059274077415464 68 69 70 71 72 73 -0.21591946482658383 -0.53537601232528675 74 0.74736016988754284 75 0.022932052612304691 0.40185618400573736 -2.1786913871765132 -0.39863526821136469 76 77 78 79 80 2.0020419955253606 81 0.043791593983769424 82 83 84 -2.070780754089355 85 86 0.32199224829673773 87 88 -1.6737124323844907 0.44673646986484533 89 90 -0.416864663362503 91 92 93 0.17047920078039172 -1.3082106113433836 0.046480160206556327 94 95 3.6899528503417973 0.45737582445144659 -2.5195763111114498 96 97 98 0.87701833248138439 0.019603255204856399 -1.5691931843757627 -0.038700649514794343 -0.045003540813922875 99 100 101 102 103 -0.89763528108596791 104 -0.16439338028430936 -1.2136263847351072 105 106 1.0388589501380923 107 -0.90943053364753712 108 109 -0.57964831590652455 110 111 112 113 114 115 116 117 3.0575278997421269 118 119 120 -2.1252897977828975 121 122 123 4.2764458656311044 124 1.9110010862350466 125 126 127 128 1.8056469559669497 129 130 131 132 133 134 0.47000323235988622 135 0.52117577195167553 136
decision_type=9 9 2 9 2 2 2 9 1 2 2 2 2 1 2 2 1 2 2 1 9 1 2 1 2 1 2 9 1 2 2 9 9 2 9 9 1 2 2 1 2 1 2 2 1 1 1 2 2 1 2 2 9 2 2 2 1 2 9 2 2 1 1 2 2 1 2 2 1 1 1 1 2 1 2 1 2 1 2 1 2 2 1 9 1 2 1 2 2 2 2 1 2 2 1 2 2 2 2 1 2 2 2 2 2 1 2 1 2 2 1 2 2 1 2 2 2 1 2 2 1 9 1 2 1 1 2 2 1 1 9 9 2 1 2 1 1 1 1 2 1 2 2 1 2 1 2 1 1 1 1 1 1 2 2 1 2 1 2 2 2 2 1 9 1 9 1 2 9 2 1 1 1 2 1 1 2 1 1 2 2 1 1 2 1 1 1 2 2 2 1 1 2 2 2 1 1 1 2 2 2 2 2 1 1 1 1 1 2 1 2 2 1 1 2 9 2 1 1 2 1 1 1 1 1 1 1 1 2 1 1 1 2 1 1 1 2 1 2 1 1 1 1 2 1 1 1 1 1 1 2 1 2 1
left_child=2 5 12 10 6 7 14 22 15 13 11 34 204 71 49 20 17 19 84 32 -7 111 -2 41 28 27 -27 39 29 35 64 106 70 51 -3 59 44 128 146 55 177 112 154 73 45 62 47 77 167 138 -21 52 139 93 241 140 61 58 95 -22 234 91 88 165 109 67 145 107 134 115 94 98 96 202 233 76 182 220 -46 81 -81 82 178 -47 191 101 -11 166 251 -73 -84 133 193 232 136 -54 132 -61 -6 181 129 119 206 -104 124 -70 144 135 -109 110 208 122 170 121 142 201 -55 -56 -119 153 150 -105 -19 126 -49 -125 -108 -128 -10 156 -71 -129 173 237 -69 161 207 -65 162 -12 213 -142 -66 248 151 -67 205 242 -116 -114 -38 188 -45 -83 -15 200 186 158 -134 -8 -99 -29 183 164 -90 212 -32 -48 -95 230 -13 -87 185 -39 175 -162 -177 226 179 -60 -43 198 -36 195 -185 223 -20 -28 -5 -190 215 -18 -180 -77 -101 -4 -163 -175 -100 -188 -23 -40 -35 -204 -1 -17 244 -9 229 210 -123 -211 247 -26 -106 -191 217 218 -97 -152 -24 -212 239 224 -31 -165 -41 -144 -229 -30 -78 -42 -53 -75 -51 -203 -237 -57 -63 240 -94 -34 243 -148 -59 -200 -159 -64 249 -121 -251 -37 -223 -161
right_child=1 3 4 31 9 8 159 16 37 86 33 23 -14 42 -16 38 18 21 100 50 24 155 46 -25 25 26 187 65 30 172 87 -33 54 43 75 36 120 72 69 40 231 180 -44 152 78 83 48 104 -50 60 -52 53 57 116 117 56 -58 102 79 97 -62 238 63 137 114 66 -68 68 105 130 -72 89 -74 74 -76 92 169 -79 -80 80 -82 85 90 -85 -86 171 -88 -89 163 -91 -92 -93 222 168 -96 216 -98 160 99 194 -102 -103 103 113 214 -107 123 108 -110 -111 -112 -113 149 -115 148 -117 -118 118 -120 143 -122 209 -124 125 -126 -127 127 131 -130 -131 -132 -133 157 -135 -136 -137 -138 -139 -140 -141 141 -143 227 -145 -146 -147 147 -149 -150 -151 219 -153 -154 -155 -156 -157 -158 246 -160 253 174 196 -164 225 -166 -167 -168 -169 -170 -171 -172 -173 -174 197 -176 176 -178 -179 192 -181 -182 -183 -184 184 -186 -187 199 -189 189 190 -192 -193 -194 -195 -196 -197 -198 -199 245 -201 -202 235 203 -205 -206 -207 -208 -209 -210 211 221 -213 -214 -215 -216 -217 -218 -219 -220 -221 -222 252 -224 -225 -226 -227 -228 228 -230 -231 -232 -233 -234 -235 -236 236 -238 -239 -240 -241 -242 -243 -244 -245 -246 -247 -248 -249 -250 250 -252 -253 -254 -255
leaf_value=-0.056051455455934665 -0.043758860151127871 -0.047532131658216743 0.01881894208703374 -0.0064023049427161666 0.0013444392005749039 -0.040041585886089755 0.032607535364290861 -0.049265539750711858 -0.0032511752369279705 0.019983718947399125 -0.021136698605609947 -0.016260612051729545 0.051806954433442874 0.019904618291987215 -0.046958308637857549 0.0035867713994716267 -0.049715912982090146 -0.039940991959379633 0.0095724533568550367 -0.0020948333256944449 -0.025461801907293833 0.0050638970286211501 -0.053791569274814044 0.041620516258682703 -0.018302815358632752 0.052792963348316735 -0.037778663025812231 -0.015014690289725458 0.0011353973468210192 -0.0095384828785848204 0.039184795128732144 -0.049628275542153134 0.042047856600672846 -0.015977147962481959 -0.059017444757802802 0.014365872620904817 -0.034637824973933147 -0.061792350381630057 -0.039505696143085134 -0.0026911645397395267 -0.032587482382245132 0.035266680458294897 0.056264430836891546 0.0050414344705575643 0.036734042392974654 0.057466470714199712 0.0011449176796751791 -0.036018254411052136 -0.037939185050012258 -0.023414341859450762 0.046611226959032838 -0.027567833446495122 -0.05877709973611478 -0.0091640501524658247 -0.0051047059628023996 0.030022373730023345 -0.039681996695801074 -0.042436738394948902 -0.027156576759148055 0.05145720458521854 0.038046568234380636 0.013967594047246391 0.0054926186992020204 0.018173763761439022 0.039214304212092231 0.0025612045766993555 -0.036107564214301252 -0.048338445880897057 -0.02176895048482946 0.049799973964459419 0.043797841570136706 -0.00067252038482337392 -0.04428467690236499 0.044579413327989585 -0.035344315966940897 -0.0099330485704503084 -0.038437022356815731 0.008405759352297865 -0.015591943383153273 -0.035594756591627454 0.040044326374103191 -0.021650115061010663 -0.04146253360738357 0.010525739681790295 0.015587587780620296 -0.01161517251888477 0.044048490926457635 -0.024776814569192385 -0.01283878304619482 0.041119373467184153 0.016314364661161786 -0.018755257087127861 -0.0014884067740788794 -0.017038930472882578 0.026228319319716815 -0.01825073761854373 -0.055224872423295247 -0.050900170113537806 -0.034894939644512971 0.0097874693657269436 -0.034596948455589367 -0.050812076453484512 -0.061706063797045359 -0.026332841990679031 0.0040429265879479252 0.020080792794872977 -0.0057704423642419653 -0.054136704162630341 0.014572901396458711 -0.02692676754009736 0.029315601375450428 -0.0029853496777800326 -0.0058383971206154121 -0.024939820348477696 -0.044502444867668703 -0.048988406167165613 -0.045421437044682517 0.043283290283257968 -0.017297325085438554 -0.016859303490019347 0.013265172538992774 -0.027513963525266555 -0.0036794564337721252 -0.019078766935319218 0.02096017631271966 0.03647704678353858 -0.011962963694810985 -0.047186757928134364 0.023689435940911708 9.5745758448086249e-05 -0.013087925356385182 -0.030893287814844666 0.013452646352397698 0.050207041960870114 -0.014028629539385308 -0.041039208648524297 0.0090838755420512302 0.051498663395130054 0.032959614247289278 -0.046646442467385626 0.032795942786662528 -0.042974010222508768 -0.0061751942985512854 -0.036301108187737678 -0.018926627032824897 0.040915491857431756 -0.014146739104796358 0.019234859602944038 0.002745646801067063 0.047445155876634511 0.034202176096457149 -0.054812403822254517 0.045331498728591019 -0.04490239532359127 -0.021578022600919986 -0.033919651155703529 0.041436867146657563 -0.0022240676987656913 -0.030800003956652798 0.049625542654170941 0.027375606950662865 0.024914950439050017 0.033697824891546317 -0.031756568936202392 0.024559031411654476 -0.018147926983584944 0.017702239377919579 0.034324148946743738 -0.045454696725451292 -0.0050948927560115513 -0.056048395082683493 0.029167120911764727 -0.033918671227097269 -0.022703348639864417 0.0082998614596949873 -0.01882596800016095 0.035226273182610256 0.03082134156744536 -0.05486504188780976 -0.051157343542895826 -0.035720078063047216 0.017246371504012228 0.00064351179826866985 0.0055598693025658867 0.056302010505825756 -0.038468448266670612 0.029548732859015762 -0.0021098295716483334 -0.046653412113444634 -0.051144527904240338 -0.04978667070963734 -0.015143773912145046 0.013196359860622682 -0.044520121535728346 -0.041105693344112952 0.028237900824613891 -0.031553517236652583 -0.008245854762940109 -0.020007114374423964 0.0064687009952450556 -0.034047756345261658 -0.019008508335797161 -0.042542357756105181 0.0029388797905316919 0.026270725020503153 0.043410760418383931 0.0051049688193538613 -0.019756386952416174 0.025164005245107056 0.026506187189953904 -0.0030693462708186888 -0.011079505077971147 -0.03390103478755558 0.0095676523721647897 -0.025300857037068483 -0.024727845686443307 -0.01351702455521721 0.028692575919834488 0.0366703828328706 -0.016081352159469174 -0.016205808498017109 -0.053677132581483614 -0.022969780323473368 -0.033412582201036808 -0.048676098395264031 0.034982882526690365 0.027659342333419063 -0.019196218943209175 0.048831011851738583 0.026505012045481814 0.010940554519768659 0.01423691523197747 -0.048013095070950647 -0.014716118745072707 0.014513394370881921 -0.030922617871101007 0.048531727681742895 0.0075982046450422279 -0.025994858856614775 0.038846559328147477 0.034779732334949562 0.004538401126645354 -0.031385929137168062 0.020649431772222296 0.01840602733647731 0.023806737293042807 0.032509670441383795 0.026762126592183078 -0.037567548994848952 -0.04381400550633132 0.049190937903156436 -0.018960706055022765 0.02997442140726831 0.034781690788384736
leaf_weight=151.66722459212178 2537.0313477728923 1129.2353995782323 13437.92109165492 176.98609919438604 2105.4234138838656 559.65273119212361 1076.9278732372331 878.66099142091116 1031.6810876078671 1881.2885491396883 517.88021010631928 1257.34518769235 14994.734825094405 518.47966965846717 281.96405409136787 239.70780543028377 581.9486925531528 3237.868077723746 1828.3752095159143 431.6160164331377 267.96976996865124 1360.4426012807526 1366.4919328370597 756.90380249341251 941.40160389780067 1178.9318971544271 377.26310115202796 221.71830116724595 1741.7654529594001 3035.0396794370026 4026.4523575249477 7581.80416679474 490.29038813128136 866.39458784239832 592.33167612709804 927.51386054424802 1010.1927521330654 103.77300040179398 354.44296725693857 829.83481844596099 1311.9308881722973 535.6008351817145 678.57897921343101 325.5044489915017 1483.4411415859358 455.83194337086752 316.23892375885043 639.00659542204812 358.69808472396107 163.90307166462298 847.31418925675098 435.45518750033807 171.74980607203906 1148.4502442663652 3202.5471837727237 1842.2768708747462 238.328346063965 697.17344829509966 509.33990123181138 462.82531526772073 6102.4914718531072 154.75167495606001 1819.8629859681823 573.33897407731274 161.70535310130799 283.05371760460548 378.1068783767405 1434.6544126491644 1273.6647620927542 116.17219257971738 102.41852896218188 629.21772617558599 783.76723489107098 384.39053451776272 348.49684874864761 488.55596376495669 402.42859995440813 165.47428740793839 214.92108922218904 647.53239710634807 371.94078677875223 674.18806450581178 230.79464188311249 431.67351426417008 185.28616685501765 534.54274862143211 1285.0859320582822 119.99789874989074 1120.2051748919766 418.15476159506943 297.01951863145223 182.91447139513912 617.68685746163828 953.17617321794387 110.28641500935191 368.65219841361977 251.35407678678166 43.351142427825835 1095.2016122485511 736.94197605125373 154.86523832764942 697.84170741870184 155.68964561348548 507.34656014014035 1281.2701585007017 256.67247036693152 403.19665466493461 285.11188479984412 244.51999888196588 203.751874982554 1322.6058893025038 328.32067574351095 237.90313371911179 1025.5771606308408 335.3469257139368 804.75845196517184 328.574935503304 329.12109002738725 174.23904513957677 3055.6125671152695 231.49970720661804 444.66993362584617 247.76261376414914 560.61782491102349 104.56572087854147 112.92088957875967 638.8973172364058 1655.5206429966493 646.9330892356229 934.38499036116991 167.07532585645095 3944.0093926688132 266.08276749349898 614.22314856719458 282.48038817523047 101.61298817128409 114.12075978843495 435.67454371787608 2501.6321445831563 1933.617148022342 323.36667511973064 80.126011868240312 1661.6772039769567 933.0090324714547 545.8232474437682 461.24962977203541 552.42343281407375 448.08171975472942 169.5969291254878 139.68685764656402 84.630978488421533 1147.7977251343546 274.15454682637937 1284.2929704402341 188.59869249968324 214.41061809298117 441.49467111722333 239.25376170093659 384.51550696510822 7087.8997604612377 3932.2892613314762 809.50358946080087 1494.1319609741913 771.14585023513064 207.3514439429855 382.84934946260182 543.66728316294029 524.82097157568205 386.43240623915335 1119.0682373774471 149.2428009948344 163.75176294334233 737.6012777085416 2191.4775536861562 919.54990603687475 341.37068900489248 357.46962225879543 377.58474280906375 66.302167428890243 2861.9038354725781 42.981033732416108 114.18306044652127 61.114884677808732 103.683069480001 289.54867107566679 342.45286000019405 1441.4689469577279 253.21149115695152 2517.8864884955692 306.94136907364009 628.95769492600812 220.75202758674277 108.16413107572589 231.69899947929662 79.763385346450377 2487.5913044630433 62.441211848519742 1470.620195207448 1015.7969656853238 453.14760514791124 129.32906252524117 513.07679107936565 730.3338788698893 111.39528424566379 32.068994224769995 212.95279663195834 105.34264927788172 264.11012048309203 542.3884432715131 495.52078942058142 1441.4665720769553 278.25703079657978 97.211539674899541 293.87436462275218 239.8398086350644 1799.2367983852164 1730.756486119295 235.54446712310892 95.260622929199599 337.14254288456868 132.56646605592687 22.655747744720429 140.4852566117188 373.72104721918004 117.72622904658783 39.301111915963702 229.81906016822904 98.152231590123847 147.49289102357579 301.54689899651567 81.317464651656337 79.597461937577464 3893.2137890824233 52.804157054401003 368.54673167475266 40.233439339906909 79.114206802565604 386.94955398369348 276.05577779188752 205.37034516915446 214.73436756693991 138.97418260673294 360.33585626419517 163.82930577581283 43.436816490837373 85.471825514046941 263.69998972630128 405.1816120633157 331.4092922314012 40.890158161986619 84.631845118332421 154.14568610215792 267.50935932248831 722.6274727738346
leaf_count=90029 1194951 621059 110248 39921 157317 278342 95684 111392 33371 34854 143448 129435 286581 13149 191277 30216 75997 146814 42369 33111 83398 13441 281669 26615 87350 8787 61522 48736 39383 122826 36956 4587837 52043 215454 137125 32961 77029 48074 146004 51157 42894 14202 4416 37329 16953 5877 48556 222472 112846 26394 22119 143492 95615 239099 187765 15855 7316 299190 158436 27774 10071 4168 52495 32894 11929 3030 106334 246804 196657 6555 2884 36626 177592 8733 106965 112621 104762 16056 36775 206826 5605 179970 96590 16668 12564 118265 12854 35643 26513 4061 8063 4152 58765 238989 5236 70347 104805 27771 121142 16278 55205 450090 95269 177604 198725 20514 95636 25356 38331 47672 24512 51393 32358 220873 72527 400964 143178 3441 20990 593854 10646 108847 7534 132804 15478 10471 143429 812799 14689 43859 52268 1386185 16177 2912 76124 13240 7456 8224 18595 956275 4203 20965 129870 187860 143222 2052 56317 29378 22519 5322 1225 496406 10492 630328 26355 12628 29358 11682 21559 130461 141511 27519 10592 115630 2889 49120 10605 8004 191409 203376 21645 16153 46677 232459 46540 26122 8688 13475 31850 871059 9501 5536 7826 24256 7588 24388 13449 17504 1356442 182096 268843 21807 4234 94111 32614 17198 5245 138356 58473 22623 40130 97500 132202 11399 5597 9543 26992 24802 26359 50358 216847 58550 5304 19458 79651 666945 381571 18492 6958 21856 19312 6209 16589 22530 6183 2006 9503 9569 3189 4495 11659 1465 2053922 3006 14024 8070 4025 5352 4148 8059 10456 39098 54182 18924 8003 1910 6908 7710 60454 10195 1949 6261 21552 13215
internal_value=0 -0.0129571 0.0318969 -0.0286923 0.0258329 -0.00153499 0.0306004 -0.0104465 0.00228725 0.00993625 -0.0228386 -0.0104635 0.0506753 0.00175195 0.0254582 0.00455038 -0.0039625 -0.00963137 0.00747641 0.00206524 0.00598851 -0.0246464 -0.0263452 0.00810497 0.00651509 -0.00034782 0.0262255 -0.00372014 0.00980954 0.00543787 0.0183078 -0.0398612 -0.00412776 -0.0259341 -0.0214263 0.0117441 0.00619864 -0.0137734 -0.0132364 0.00465806 -0.00914116 -0.00263165 0.0320645 -0.00855833 0.0109068 0.00673641 -0.0177829 -0.0244261 0.00397362 0.0262158 0.0301738 -0.027692 -0.0250911 -0.036221 0.00371214 0.0119845 0.0192628 -0.023191 -0.0264543 0.0215054 0.0352211 0.0233262 0.00306741 0.0116503 0.00655775 -0.0149246 0.00529637 -0.0195191 -0.0295257 -0.0272874 -0.0270956 -0.00493624 -0.0196666 -0.0162577 0.00514381 -0.0141824 -0.0244646 -0.044615 0.0301124 -0.029446 -0.00799888 -0.0313123 -0.041039 0.0354011 -0.0297443 -0.0262326 0.0297505 0.0350581 -0.00683362 0.0160125 -0.00894945 0.0283037 -0.0020374 -0.0411697 -0.0326046 -0.0114727 -0.0159351 0.0236188 -0.00912926 -0.0161804 0.0144759 -0.0286102 -0.014014 -0.0104799 -0.00958733 -0.0147498 -0.0347016 -0.000679629 -0.0224149 0.0138387 0.0159639 -0.0344041 -0.0132114 -0.0087009 -0.00507389 -0.033815 -0.0172298 -0.00138063 0.0223132 -0.0261909 -0.0207081 -0.00388394 -0.0373635 -0.029704 -0.0280056 -0.00976466 -0.0317261 -0.0334036 0.00713166 0.0159664 0.0140013 -0.0358499 -0.0139276 0.0313309 -0.0426942 0.00895137 -0.0377669 0.0325629 0.0232746 -0.0410899 -0.00442822 0.0177495 0.000675708 -0.0214739 -0.0398824 0.0263296 0.00150785 -0.00467163 -0.0286331 0.0138735 -0.0262004 -0.0416213 0.0234614 -0.036898 0.00883997 -0.00280895 0.0195273 -0.000193211 -0.0127015 0.0463565 0.0213156 0.013596 0.0219145 -0.0151561 -0.00694529 0.00384989 0.0366292 0.0218487 -0.0257024 -0.0126528 -0.0204822 -0.00205163 -0.01853 -0.0181347 0.0218796 0.024576 0.00882274 0.0109662 -0.0458158 -0.0475312 0.0299933 -0.023602 -0.0534375 0.0208356 0.0429229 -0.0155962 0.0169291 -0.0234533 -0.0388329 -0.0399256 -0.0337322 -0.0402082 -0.0126689 -0.0210594 0.004817 0.0202902 0.0208712 -0.0168975 -0.0257255 0.0240285 0.00166856 -0.0214415 -0.0261019 -0.0365233 -0.0416831 0.0223218 -0.0333925 -0.0424456 0.00913438 6.57979e-05 -0.00452908 0.0129901 0.00752223 -0.0116724 -0.000583831 -0.0289379 -0.00817674 0.0050374 -0.00697314 -0.00599171 -0.0504677 0.00137326 0.00959032 -0.0133751 -0.0109999 -0.0281725 0.00389129 -0.00259165 0.0216494 0.00487938 -0.0301367 -0.0299091 -0.0459563 0.0374177 0.00283817 -0.0113174 0.0217468 0.02613 -0.0116398 0.013998 0.00786745 0.0337638 -0.0146216 -0.00618777 -0.0388683 -0.0166066 0.0159869 0.00936581 -0.0175355 -0.0154486 0.0188936 0.00961655 0.023443 0.0482522
internal_weight=0 152407 62129.5 64094.3 46951.1 88312.4 36118.9 26509.6 61802.9 10832.2 42073.7 8403.69 15178.5 7665.81 27231.4 54169.7 18843.6 12601.8 6241.72 7083.7 50117.5 5518.13 7666 3119.66 49557.9 16067.2 1809.41 14257.8 33490.6 22114.5 11376.1 22020.6 5804.77 33670.1 5284.03 17507.9 11183.1 7633.16 4052.2 8163.04 2828.77 2362.76 1385.66 3093.47 9519.65 7821.29 5128.97 3929.21 1199.76 26949.4 1278.93 30576.6 23431.3 7145.3 4335.17 5334.27 3695.5 20979.8 15495.1 6324.83 6634.94 3457.17 6933.78 3714.12 6686.03 6094.79 1122.41 4972.38 3247.47 2074.87 1469.6 6280.15 5954.54 2493.82 785.692 4154.79 2256.26 1664.53 1698.36 12893.2 1019.47 11873.7 4073.52 887.505 987.987 7800.17 3166.37 4690.12 3219.66 1047.37 527.814 3026.36 1898.53 5668.28 1367.18 2601.96 5170.78 6056.86 5232.78 3127.36 5253.74 7101.88 5484.65 4638.69 2264.68 1530.34 14438.8 1724.91 529.632 4112.06 3908.31 3813.95 1784.18 4483 2573.97 1791.63 1477.03 3705.91 503.36 6404.03 1663.47 3457.43 3485.63 7315.16 743.572 673.539 6641.62 6238.43 1678.61 5098.87 283.248 5599.53 4919.42 2843.45 1717.13 1195.28 1256.89 1009.01 20314.5 2451.5 1638.77 403.493 2069.03 4445.55 7123.63 744.303 1977.33 1524.67 504.944 377.59 1431.97 6577.81 599.659 1958.48 707.078 1704.18 4164.49 1153.55 650.598 8887.46 5594.03 1093.66 17812.9 2138 1327.56 2705.11 4570.12 841.06 1339.61 1602.81 1406.59 698.295 4606.54 3765.87 5550.68 4631.13 698.84 1437.24 3545.71 3371.24 578.582 2310.65 653.447 16318.7 393.232 3868.94 3722.99 630.475 5430.01 5253.02 2735.14 802.701 174.466 720.255 816.705 15925.5 871.945 3662.1 2196.47 1894.62 1489.77 986.867 1708.12 841.729 183.736 452.661 845.953 1142.77 2585.7 2950.08 2176.3 773.778 2322.26 1235.28 1521.11 2106.18 2430.21 699.457 463.913 421.774 1499.06 1731.63 1178.28 3526.49 3152.77 810.447 1059.65 1907.32 245.645 2043.31 483.746 1391.53 4328.67 437.195 532.45 632.424 119.348 2229.23 430.807 1037.79 832.421 629.265 1076.59 716.253 740.61 1101.27 502.954 2225.04 3512.54 3181.13 125.522 1081.66 290.165 7810.53
internal_count=31732355 30154960 1577395 22078972 1195188 8075988 669603 3297228 4778760 525585 11755936 1625486 382207 477877 430243 3973088 1099508 782277 317231 510337 3059142 271940 2197720 239078 2780800 1192128 87813 1104315 1588672 1113444 475228 10323036 455107 10130450 1386408 890840 529036 805672 913946 294373 118494 212463 43920 525580 418280 364552 1002769 833363 169406 238966 55230 9604870 6594781 3010089 303337 175879 43903 5495058 4204764 361804 50489 36587 342007 155747 392024 809942 111416 698526 540099 715386 151770 433957 757612 477759 118704 765349 464748 317037 53728 3631781 212431 3419350 1170232 22545 110368 2249118 47708 83204 186260 40687 104653 28271 300601 2627812 148886 572983 580020 278406 393270 235953 206863 2114700 1290294 956109 516326 217171 5735199 158427 63687 142421 94749 205741 188760 860840 249603 656563 382277 212196 24431 1664610 110756 639967 154348 2581324 237950 143275 2438049 2342413 48060 151658 58823 2198984 475215 24119 322928 94740 143650 41118 188477 1099723 131976 25168 154557 854312 3153875 5082 198560 158801 95046 37680 100110 3010653 47821 810298 39504 66199 107799 56326 37736 239360 250632 81500 169882 147038 29402 114629 47561 56560 430398 319797 151080 134418 222604 418889 222861 176321 34810 74135 1065579 1029495 23703 187061 144951 159290 31844 175927 78441 79026 2514247 2474326 1117884 97804 36084 206732 48892 127446 32764 370815 181525 36072 53571 255599 359055 143601 95626 39759 334185 136194 70237 462363 353455 108908 65509 106808 278376 849041 477368 95797 77305 23081 300981 244608 93869 151539 129009 117636 60660 142628 12758 43878 116421 44359 2197414 11739 40418 109595 12095 21207 8316 77280 69221 91141 129423 75241 307193 60383 18590 60205 666452 605998 12144 39222 27761 143676
cat_boundaries=0 213 407 539 652 653 654 655 656 734 735 736 737 853 854 973 1051 1120 1214 1215 1216 1217 1218 1219 1220 1221 1284 1285 1348 1349 1350 1351 1352 1353 1354 1355 1356 1357 1358 1359 1360 1554 1555 1556 1557 1558 1559 1560 1561 1562 1563 1564 1565 1634 1635 1636 1637 1638 1639 1752 1843 1844 1845 1846 1847 1848 1849 1850 1851 1852 1853 1854 1855 1856 1857 1858 1859 1860 1951 1952 2146 2147 2210 2211 2212 2213 2214 2215 2216 2217 2218 2219 2220 2221 2222 2223 2224 2225 2226 2227 2228 2229 2230 2231 2232 2233 2234 2235 2326 2327 2328 2329 2330 2331 2332 2333 2334 2335 2336 2337 2338 2339 2340 2341 2342 2343 2344 2345 2346 2347 2348 2349 2350 2351 2352 2353 2354 2355
